0.2620502;0.36733347;0.98833764;0.6976979;0.84096456;0.7676369;0.4251963;0.3437814;0.9290464;0.9651515;0.0757581;0.7103448;0.1374291;0.8725652;0.6168242;0.67551917;0.26671517;0.648182;0.8711403;0.7457745;0.1427607;0.1065411;0.62432647;0.619259;0.76123923;0.5030176;0.8422047;0.42259645;0.26298606;0.16816723;0.013437331;0.7791128;0.3012247;0.095416225;0.26158562;0.8597432;1.0503621;0.8340456;0.9059801;0.58068264;1.2155417;0.47263682;0.35913193;0.21614538;-0.20462814;0.09172722;0.4592282;0.9139339;1.0773609;0.8406394;0.19063902;0.32664678;0.9315638;0.70484054;0.8081115;0.4585635;0.93944037;0.22731692;0.2609034;0.4714424;0.17335504;0.3429025;0.91185486;1.2035917;1.6393367;2.0530775;2.7976768;3.543907;3.4566507;3.4772334;2.0644734;-1.0028634;0.30113816;2.1581228;2.8753908;2.3122792;2.1233466;1.8082968;0.72027415;0.585778;0.6457681;0.23081551;0.86877656;0.59208137;0.15827453;0.46547085;0.6168297;0.56130505;0.69609165;0.107758865;0.035207856;0.3504042;0.46898392;0.09125979;-0.35787988;-1.5559424;-3.2176294;-5.193196;-6.7895374;-8.827962;-7.423596;-2.5440528;2.7669947;2.1670892;2.6978369;3.389695;3.8042305;1.9754808;1.6122282;0.9961175;0.72871345;0.3363036;0.032687724;0.051348448;0.3014822;-0.012624053;0.6353433;-0.70816344;-2.2982328;-4.774466;-9.682275;-13.841382;-18.185823;-20.989258;-21.397087;-20.778664;-17.005972;-18.792566;-14.433802;-8.659296;-1.3816106;0.29542536;2.1805634;5.4886875;6.345238;5.8104434;3.4964478;1.9740398;0.08602189;0.18487284;0.99039006;0.3580764;0.6053437;-0.26324916;-0.9735664;-6.6896725;-12.740431;-17.502007;-19.546104;-20.476053;-18.060036;-12.67325;-9.36574;-8.918896;-6.0033946;-10.375752;-10.245557;-4.8231554;-3.4250412;1.454917;3.8528366;5.6453967;8.483902;7.6330976;5.2291584;2.9374099;0.58820695;0.054927215;0.48832744;0.45030206;0.62515086;-1.8179965;-5.611082;-10.508119;-17.974308;-21.505093;-17.131088;-8.447379;-4.5748014;1.4289525;5.8016014;4.4094763;-1.9652547;-5.2834716;-5.1315465;-9.795285;-15.475109;-5.4170003;-2.9081929;-0.7695152;6.2937574;10.347948;8.014619;4.5174866;0.4387631;0.27914855;0.9620683;-0.39067888;-0.16909814;-3.578124;-8.037863;-13.057978;-20.986107;-18.25868;-7.436122;-4.2274246;-1.2124707;1.6672963;0.3132668;1.5867096;-0.9249366;3.7126684;0.28826675;-15.261539;-15.753018;-15.8324175;-12.523771;-3.1272;4.0430856;16.33023;16.03961;7.8313174;1.6897765;1.0648313;0.9815347;-0.46442845;-0.75671434;-3.7341244;-11.87222;-16.050913;-18.558804;-7.4317603;1.6296299;1.4293805;0.48103258;1.663426;4.0008616;2.1147306;-5.0843143;-14.273027;-8.142928;-14.023079;-5.5412426;-14.500695;-7.6151156;0.39604852;7.00008;21.444077;20.47579;8.952054;1.196348;1.0606323;0.07405071;0.32305223;-1.256589;-6.073481;-13.362801;-14.654126;-8.285314;2.7165813;10.887208;5.1469436;11.762737;26.568583;27.51322;2.5922782;-23.87688;-40.588696;-26.989162;-13.425979;-2.9840827;-2.5616302;-3.701777;2.9239686;15.272723;27.31897;19.695454;7.379128;1.1976912;1.0970854;0.7805511;-0.30339354;-1.4943947;-7.202111;-11.156444;-7.835506;6.350705;21.853556;28.033627;24.52817;28.0688;53.27269;44.30693;5.773775;-31.157331;-43.551765;-28.206263;-12.148431;-8.162764;-3.6225154;-3.0184305;10.245248;23.390928;22.675156;12.606682;4.8383303;1.0263016;0.38089263;0.61570543;-0.20779535;-2.1622207;-6.03714;-6.270217;3.847889;20.984476;36.86664;46.68418;36.25671;46.5808;51.408783;43.24021;22.133898;-12.520968;-26.118162;-19.453737;-11.535625;-12.298269;-8.10784;2.8481276;19.005096;23.00298;17.777079;8.614897;1.5577879;1.1867689;0.28492007;0.5722903;-0.3074511;-1.334701;-3.6342387;-1.9714175;11.08089;28.85594;42.641315;40.205433;29.180748;36.911037;35.04762;33.994465;25.63487;-3.0342891;-10.58178;-10.114471;-3.874751;-2.6675224;-0.26210138;7.841362;22.55488;22.311903;19.076122;7.7042294;-0.43261805;0.6331025;0.9536347;0.6341199;0.65995437;0.15548246;-0.8156763;0.595503;13.228079;25.264223;33.960915;31.737022;22.011387;22.16816;19.925938;16.746685;4.499663;-12.318976;-4.546673;-2.4963741;-0.7108497;-0.6349445;-4.7644825;5.3192773;18.361956;19.89181;18.023027;5.758162;-0.1725787;0.14379807;0.6541324;0.54825014;0.5498393;0.4224937;0.9232437;2.6797607;12.6355505;19.982878;19.337357;14.800121;12.007063;13.0815525;13.940157;0.8075807;-9.851727;-10.8264885;-9.138222;-4.798775;-3.9049265;-8.90339;-12.602185;-6.9276958;3.6381388;11.883552;10.941624;4.2182813;-0.3471352;-0.069565155;0.8395361;0.14725414;0.24002826;-0.10499697;-0.12714079;2.4304562;6.767353;8.6264925;4.6362596;3.6659899;9.285678;11.956776;5.8640423;-1.5758196;-12.759092;-14.671103;-12.586837;-8.135187;-7.683012;-5.0723586;-17.538115;-14.97017;-6.055623;3.9985652;6.923598;0.8900236;-2.1167989;-1.1497059;-0.25764737;0.12652732;0.06976368;0.14022708;-0.90364283;-2.5278482;-1.1248403;-2.5368896;-3.7904127;5.4499755;12.678145;19.538717;14.1505165;3.2730627;-11.16252;-20.24635;-13.404446;-13.620385;-8.600007;-5.463255;-13.66264;-16.439476;-11.751568;-4.4038353;0.19098167;-4.620283;-6.1445017;-1.1793809;0.47427288;0.6517218;0.1270989;-0.86013037;-3.60687;-8.259051;-8.935998;-3.273149;1.9550147;14.222087;21.792727;23.120565;20.961952;5.662301;-14.022464;-23.79686;-16.895287;-12.5746765;-4.0741577;-5.8006725;-6.9736643;-5.161948;-12.828533;-11.152424;-9.538338;-8.370275;-7.483107;-1.1604003;0.58248776;0.9514058;0.9765259;-0.7558341;-6.630181;-14.9807825;-11.828055;-2.4156115;6.65723;11.521735;17.668333;15.826965;18.3376;10.159955;-11.933446;-17.751225;-10.21414;-3.9366162;-6.025453;-9.714337;-7.4716578;-3.0959735;-13.4235935;-14.175262;-15.179097;-10.105639;-7.0401845;-1.0114728;0.049966708;0.21998388;0.74518865;-0.43051746;-8.725486;-17.821623;-13.030631;-2.2902255;2.7104483;5.0832624;11.624076;11.074686;16.56539;12.284021;-3.1224525;-8.939214;-10.512733;-10.198066;-13.958061;-15.423817;-5.052876;-3.590329;-12.982167;-14.97702;-14.74216;-7.798623;-4.271693;-0.6872552;0.3232744;0.79815376;0.3662547;-0.21968482;-8.899089;-18.448715;-14.561344;-8.909903;-4.0179443;-3.082056;0.81879413;2.8813438;11.107539;10.406695;3.4665668;-8.551591;-11.760325;-11.586359;-18.622509;-18.084036;-9.82468;-8.64444;-12.158278;-11.125305;-10.851899;-6.339017;-2.5242462;0.06647194;0.9767907;0.7483187;0.10802334;0.20496732;-5.1717286;-14.313766;-18.624638;-17.505955;-9.479655;-6.9416437;-4.4601817;-1.7464076;10.894936;10.866231;6.1654944;-0.3168556;-8.471052;-8.124065;-15.654968;-15.490039;-12.549539;-8.045478;-9.021303;-8.796434;-7.915965;-3.2972753;-2.217047;-0.19250922;0.9406466;0.31161392;0.8102242;0.37192363;-1.9677631;-8.096319;-13.700068;-17.503199;-18.72966;-10.177881;-5.462781;-2.2263467;13.181945;21.734413;18.812305;7.753236;-2.950143;-10.321205;-12.7075;-8.700829;-7.1722875;-2.426597;0.38550547;-1.3489413;-1.5996087;-1.2282866;-0.52000105;0.7853887;0.024756603;0.924864;0.036562502;0.80955696;-0.47881198;-4.994265;-9.443525;-12.804422;-15.387671;-6.9083605;-4.7870526;-1.242541;7.110336;20.01267;20.492052;11.263131;3.4997015;1.7047532;-2.0783153;1.1940826;5.137369;8.116202;6.2755537;2.7037857;1.927353;0.2361224;-0.45263103;0.20992905;0.27633256;0.41571248;0.19304866;0.81171376;0.25829506;-2.279952;-6.7550225;-9.870397;-9.582703;-5.6990724;-3.0474133;-4.842952;-0.33354592;3.745556;0.87106186;-1.4521819;2.03308;4.8957176;7.5162363;12.2682705;16.080751;13.303711;10.144868;5.4096494;2.678408;0.10711062;0.45845664;0.21220267;0.24575979;0.83263016;0.99633545;0.7159596;0.7014508;-0.3551766;-2.795373;-4.5873675;-4.8163323;-5.2225823;-6.079572;-8.270516;-9.790837;-9.472888;-8.906201;-5.8264303;-1.623874;5.035322;10.519412;12.673424;12.015085;11.21507;7.870921;3.4253237;1.911871;1.0876851;0.09791253;0.06376488;0.78382534;0.8564876;0.27196127;0.9641712;0.6804396;0.7559271;-0.5558761;-1.3643026;-1.5927924;-2.7097147;-2.694116;-3.873009;-1.8616431;0.5957144;-0.9999141;0.492596;-0.9102395;0.25074202;1.4501234;2.9290326;3.3247552;3.605237;1.634526;0.20894521;1.021866;0.9198502;0.9168299;0.7795838;0.2541262;0.76601076;0.93778837;0.060530722;0.17222124;0.04274235;0.62893355;0.8084486;0.40780085;-0.3157855;0.40201554;-0.87084806;-0.23323606;-1.3601043;-0.8620242;-0.10059384;-0.41350776;-1.0493914;-0.646965;0.75513965;0.31136996;1.1786599;0.99910736;0.18600851;0.65056163;0.62416774;0.48414642;0.4059252;0.82991207;|0.8448582;0.23773855;0.66957957;0.48139453;0.8740127;0.34696627;0.80351716;0.9416948;0.5548006;0.94225025;0.14312333;0.63119847;0.8901515;0.689891;0.93129015;0.18144397;0.2727455;0.7976073;0.087521255;0.4676876;0.12989694;0.48697245;0.17459136;0.73838025;0.6609112;0.33019364;0.9101683;0.6908949;0.09538555;0.51010424;0.71876925;0.05239761;0.73537356;0.4656953;0.6796682;1.2974094;0.90692955;1.434295;1.4318576;0.7857985;2.7322116;1.4570912;-0.09631404;0.48996687;0.98930997;1.1596792;2.0250986;1.7338197;0.9809359;1.247373;0.68327653;0.68447125;0.89588046;0.7196114;0.0060922503;0.6621054;0.69242054;0.21429503;0.06774676;0.63948274;0.8118947;0.83844495;0.5741642;1.6358626;2.1457748;2.84207;5.1660733;6.3067427;8.067107;8.098843;9.037914;10.388154;7.6267;6.4462037;7.1251483;7.2430887;6.2162843;4.6696787;2.9531937;2.481103;1.7178991;0.24056369;0.8239388;0.52283853;0.5754273;0.5546265;0.4943177;0.73763037;0.9899078;0.25994056;1.3651434;2.3534129;4.729586;8.706392;11.075303;15.045066;19.451136;23.454334;31.13656;33.858753;31.73212;27.887684;27.466185;22.097816;19.097063;16.151705;11.233811;6.31656;2.5474656;0.28630197;0.81178707;0.8465191;0.5090583;0.3575989;0.6570039;0.9780417;1.4723737;2.2502885;3.457663;6.0075088;11.576315;17.278528;22.348192;22.272057;19.949055;16.423052;17.243233;15.069592;12.1087475;14.649276;18.741592;15.378188;10.827568;7.303737;2.9323606;-0.35822082;0.027384793;1.0048823;0.24712345;0.20278452;0.4229657;0.7807384;0.25777757;0.7699025;2.3836722;2.4270177;5.6483316;12.076745;19.617815;19.658155;18.25586;16.647333;13.576943;9.498276;-0.6064238;-3.6522875;-3.225306;-4.7655306;-4.2954144;-3.6198502;-3.950968;-13.689154;-16.114979;-11.838291;-5.651521;-0.9333557;0.18239006;0.47378096;0.9590205;0.9594059;1.0884268;1.1667682;3.1707118;4.4286785;8.138358;15.782826;21.386383;17.090088;11.791092;17.36424;21.31235;19.183683;12.994001;4.9977417;-4.639431;-11.231344;-9.565676;-12.706624;-13.023624;-23.522041;-27.982225;-21.383375;-9.10309;-2.0922468;0.009957334;0.5725384;0.65845203;0.4860163;0.45586687;1.6862388;5.0163984;6.274473;8.344961;11.176531;15.649507;9.296996;8.872321;19.238329;19.489964;17.8804;15.765409;10.674768;-8.652612;-15.261296;-19.758923;-19.271933;-16.384604;-23.87905;-31.682606;-27.076786;-11.984397;-2.5969055;0.36402008;0.6069328;0.5857039;0.35619634;0.7695558;1.7931226;5.4409204;4.021323;4.814016;4.0966654;5.5732355;0.7344304;-0.5264259;0.45367965;0.3624491;-4.7688065;4.794853;7.0974946;-5.3835096;-15.946316;-24.074957;-24.280573;-17.661175;-14.912796;-23.299017;-25.248007;-13.833973;-4.4113665;-0.24803114;0.76806355;0.39569765;0.35443908;0.26406538;2.831364;5.109605;2.5587811;-0.5353219;-7.2518473;-7.654305;-15.046893;-22.7641;-23.644083;-22.801794;-22.16254;1.3705313;6.393118;-2.6790829;-9.309131;-19.46536;-22.356537;-14.038407;-9.937753;-19.016132;-20.633821;-10.281762;-3.2189925;-0.9901542;0.60760653;0.9928178;0.8404817;0.66550106;2.6702175;-0.55638593;-3.1724184;-9.030503;-16.939789;-25.615658;-40.618275;-44.95143;-39.925247;-39.464394;-22.644516;-6.0871277;-0.20498814;2.7478828;-2.9706793;-4.8490257;-13.342224;-11.67512;-12.664792;-15.952908;-12.99108;-6.540588;-3.7237911;-1.1571316;0.38997146;0.028016945;0.21678425;0.6002833;1.5159259;-1.4945894;-7.2769046;-17.005726;-25.986214;-35.69837;-45.122158;-40.53995;-27.821852;-22.836103;-9.606728;-1.5871357;2.4147644;6.115547;7.9073467;7.9358797;-0.4276017;-5.5849915;-7.079497;-9.153555;-5.814354;-5.43354;-3.5105333;-1.25243;0.60414857;0.9507717;0.20707141;0.5929025;-0.081816494;-3.4618983;-8.4759445;-18.691679;-25.544113;-28.854557;-31.014248;-18.606285;-10.250688;-0.035762385;4.3738055;1.8068303;2.7088325;7.330522;12.474845;14.903747;5.473961;-1.3622249;-3.1696887;0.8862063;2.2469766;0.41384488;-0.45556235;0.1626768;0.22131643;0.8731336;0.2135321;0.54234815;0.2886655;-3.795096;-9.98057;-14.550023;-18.955318;-16.539192;-17.71727;-12.279015;-0.3608079;14.4884205;12.989898;-2.5178974;-7.3381495;2.4247742;7.4340997;6.7411513;5.946209;2.869758;5.0188227;6.89454;6.2111855;5.633682;1.4618182;0.57364464;0.55479234;0.7485293;0.92822576;0.518659;-0.061704412;-5.431767;-12.819188;-8.348245;-6.122171;-5.249888;0.26242623;0.54436815;10.467561;12.700222;-1.6697694;-9.2466345;-13.354794;6.432867;5.9605527;6.1461544;5.3601127;10.448402;13.34608;9.649168;5.2946506;5.7503114;4.2331367;0.631651;0.3044099;0.51216817;0.21331914;0.6627111;1.082429;-2.8809314;-10.027636;-7.294168;-1.7316293;0.028688194;8.43411;9.37417;8.4632635;-2.1556127;-9.408805;-5.5930614;0.2686032;2.007218;4.6276965;6.546994;7.8218746;18.801256;18.205755;10.657131;3.5159976;4.966602;3.4019523;1.061632;0.2362823;0.42195413;0.6158533;1.8245046;3.105368;1.5156062;-3.6170592;-6.7688026;-5.678116;-3.056789;8.203045;6.609117;-0.41151953;-15.208133;-18.617208;-13.253627;-5.2546935;-0.2944835;10.005446;18.682673;21.547226;18.16981;16.862057;11.261967;5.6491303;6.741722;4.3555055;1.0697132;0.42588404;0.5294928;0.625697;1.6582676;5.0173473;5.3633747;-1.3150997;-5.790897;-2.1360865;-0.5899865;-4.9858274;-0.44291237;-3.7384837;-16.84733;-24.797194;-19.4439;-11.490268;-1.663065;17.255735;28.471842;22.55072;14.319105;19.279444;10.9777155;8.136262;4.7097187;4.563251;1.3440663;0.4438234;0.8144113;0.1591554;1.2577386;7.4835577;9.26257;-1.8782662;-6.0516872;-0.92398566;-1.7254846;-5.0820293;2.7530131;7.8072534;0.09785951;-9.700899;-12.7995;1.2548269;12.219994;27.96881;31.69292;22.686289;16.50485;21.528894;14.045046;8.274923;4.7836576;2.801091;0.1647466;0.41187602;0.74251044;0.7526265;1.7117261;9.543864;11.708105;2.3983598;-3.9639103;1.3577355;5.8330493;-0.626505;12.739271;25.654703;16.736742;6.4162197;3.9755604;13.574843;21.635286;29.624456;30.197016;28.488613;25.370533;22.616304;10.257636;5.2485175;4.3591504;1.8849803;0.59399056;0.6987623;0.12656969;0.49869302;2.5384653;10.733549;15.459904;7.0579205;2.96105;3.7981608;7.0405703;12.853521;15.576514;21.42278;16.074244;13.34409;14.10668;19.4546;24.757477;25.134996;31.567959;26.038885;26.517084;12.062361;0.24874449;2.5529728;4.072896;1.0153273;0.8694224;0.22033644;0.27236903;0.72788435;2.178761;8.866576;15.021142;8.492865;5.451218;6.6905475;10.521302;9.152385;6.567889;10.633332;13.534382;17.729218;15.31006;15.220712;19.949696;21.776402;20.259298;17.889923;8.705916;-2.0043151;-4.2780247;-0.018000858;1.6751403;1.191134;0.49329627;0.04538316;0.4345687;0.6101705;1.9595904;7.4562435;12.887705;10.415905;10.539;6.738436;2.324997;1.2739415;-5.1700077;-9.328956;-7.9749966;-5.1352983;-10.475363;-9.76079;-5.1627016;-6.623435;-6.179135;-0.21803312;-5.4806247;-6.886944;-3.5033896;0.3346062;1.1347529;0.58787715;0.7082039;0.7008376;0.1308552;0.66436875;0.55924886;3.8474221;9.322249;12.907652;14.968611;16.933994;9.327588;3.7357779;-4.363638;-16.524097;-23.92135;-26.851034;-30.66461;-32.52791;-23.949322;-19.47628;-12.766263;-9.079466;-9.774776;-5.592102;-3.0768015;-0.7442898;0.6392014;0.20362982;0.6027755;0.5066912;0.48124075;0.8840305;0.70266306;1.4151605;3.7786727;7.8671484;11.102189;14.44108;13.662431;15.810404;17.444658;11.324133;3.499704;2.3999183;-1.3278636;-2.249243;1.6284926;3.282087;-3.3090873;-2.6245124;-1.7888856;-0.8002305;-0.73819846;-0.26216605;0.8315119;0.34663102;0.9273497;0.43725246;0.84535897;0.7665805;0.6748009;0.9032459;0.4037367;0.03382184;0.6766405;1.5860142;4.1936145;5.482718;6.2686014;5.3988767;5.8933744;3.2383285;1.2312287;2.6320057;4.984683;6.3664966;7.8677325;7.242651;4.3310075;2.1974988;0.86535156;0.2902061;0.43737122;1.003796;0.19363531;0.7965958;0.83283484;0.43601412;0.4870566;0.44525018;0.6782797;-0.041225024;0.55240494;0.36621112;0.21942782;-0.2710362;-1.1333889;-1.2499496;-0.119108744;1.2037129;0.612208;0.24381846;2.2513125;3.7727513;2.7319393;2.5864425;1.7878492;1.2300828;0.7380759;0.14450218;0.9087694;0.10894203;0.48990548;0.20256102;0.79765725;0.75324184;0.4178266;0.7773526;0.73839575;0.6171633;0.62109584;0.33375144;0.43058255;0.53447324;0.12295694;-0.102503546;0.6589267;0.6078718;0.7994444;0.30051562;0.31951454;0.5269116;0.8783973;0.79938924;0.7188477;0.5829897;0.87404376;0.22758387;0.50691944;0.7097276;0.68612295;0.08703488;|0.45267546;0.27497518;0.25658065;0.40726006;0.81482613;0.83634484;0.06541586;0.84056824;0.089250684;0.45510572;0.0681749;0.6073964;0.5414699;1.1420704;0.99783003;0.029551469;0.7441598;0.33871865;0.21085632;0.94235104;0.5119109;0.5849696;0.15198767;0.6348001;0.5391728;0.21171463;0.018482804;0.85208964;0.5228102;0.90672934;0.09968096;0.749299;0.101778984;0.0058023687;0.71942383;0.29627952;0.53169537;0.36630863;0.76992756;0.98404247;1.0526042;1.1253456;0.7055561;0.8611062;1.4041132;1.1359873;0.15135406;0.55347997;0.8037478;0.24833941;0.18980509;0.96741545;0.859745;0.28274208;0.2409553;0.42848474;0.3006962;0.07761085;0.43110126;0.023657322;0.9691911;0.62510324;0.5465616;1.3039572;1.2479724;1.450604;2.1413853;2.570259;3.7766492;4.1921005;5.530267;4.9485745;4.795551;3.478641;2.936942;2.4816384;1.9559202;0.8168953;1.4218493;0.6829631;0.5023783;0.9943234;0.08444023;0.68533653;0.6148371;0.5924807;0.19793874;0.7324003;0.9259504;0.60489607;1.3659704;1.1310927;2.3675237;4.026713;6.323469;9.912733;10.064878;12.118569;14.559375;13.838876;13.775888;11.857606;9.48506;5.722131;4.051184;3.4391334;2.5562801;1.6570823;1.4822905;0.4451541;0.71236837;0.1335144;0.35352278;0.3718819;0.99312204;0.09134778;0.25806078;0.98342067;1.4916117;3.155317;7.4714456;12.092535;16.514637;16.400581;16.005148;14.080751;15.277093;13.371637;8.093027;4.28925;2.1637778;0.253358;-0.4458792;-2.394714;-1.4391031;-1.45669;-0.7932805;-0.27315518;0.44831565;0.8977779;0.596063;0.9873774;0.34040868;0.27307215;1.5384392;1.6269099;3.9957197;8.222349;14.440466;15.0574875;17.041656;15.078108;13.5131445;10.565041;4.831234;-0.4166864;3.419747;-0.06584152;-5.4717493;-9.191927;-8.245676;-7.489723;-9.593045;-6.9597874;-3.832483;-0.9872126;0.38006496;0.97994596;0.111389995;0.8512833;-0.021098765;1.3082023;2.8367374;4.771895;7.05823;11.498674;15.615473;13.723775;14.372498;10.755446;8.604334;10.5717745;9.582871;10.058615;8.294368;-0.20079495;-1.1080345;-7.4807973;-8.84535;-11.954368;-14.257125;-11.548074;-7.7755203;-2.397077;0.09448798;0.20504518;0.31017873;0.72555417;0.15936603;2.3418775;3.7977138;5.2140203;5.603371;5.8990345;4.144452;4.1399355;5.2363095;4.4867744;8.022404;10.243871;17.231026;20.067963;10.732342;8.035401;-1.2538381;-4.7330675;-8.864435;-12.667189;-12.935711;-13.796794;-9.704958;-3.5151298;0.16159548;0.4973146;0.116699934;0.90067744;0.26647803;1.6998329;3.3963037;1.6634655;1.1858841;-2.2985475;-5.4720316;-1.625772;0.19303015;0.6121227;7.4430227;10.579237;25.014246;22.373144;10.530812;3.2786694;-1.8700372;-5.224271;-4.6426415;-8.7392435;-11.184974;-15.208518;-12.257777;-5.2585406;-0.14509954;0.026946044;0.6220796;0.76599765;0.77076334;1.4787074;0.9900252;-1.7337983;-5.3199224;-9.117059;-12.412542;-8.208741;-6.6968145;-7.2636576;-1.2499163;6.5409393;15.091538;15.190811;10.15553;4.964477;3.3845696;0.8153762;1.8655611;-4.5730658;-8.359176;-11.783056;-11.207203;-4.587558;0.3141202;0.14980187;0.4015217;0.14254992;0.08918443;0.30112028;-1.6613965;-5.7613525;-10.810495;-15.470221;-19.346117;-17.655237;-20.390049;-17.878798;-12.396285;-5.7031937;4.173926;5.7646832;6.123733;5.6930175;4.1937;1.7384566;2.2413206;0.21220301;-1.3129888;-4.0425653;-5.899056;-3.372663;-0.4343253;0.931778;0.25653288;0.00284395;0.8644026;0.35394248;-3.6612186;-9.231887;-14.610394;-18.004965;-23.332607;-23.26458;-22.06549;-20.353281;-12.537102;-7.1335187;0.17851442;-2.9177814;1.4279449;0.79745567;-1.3060215;-1.4091835;0.37175575;3.4226947;4.223521;3.8474226;-0.6956048;-2.1278126;-0.46832803;0.065980695;0.062935546;0.9763308;0.33538312;0.06703158;-3.9968054;-7.712316;-13.745463;-17.183216;-19.255207;-15.129988;-14.163064;-15.493864;-8.436538;-12.865948;-14.723818;-10.154851;-2.5073514;-1.9099002;0.16391222;-3.4555516;0.6233257;4.4763174;5.552274;6.1129284;2.1570616;-0.39624283;-0.37882718;0.06027397;0.27167577;0.25152624;0.323093;0.61727285;-3.1975615;-4.7119555;-10.247907;-12.346197;-9.656218;-4.8102617;-0.029521475;-0.41199398;3.538318;-1.480797;-6.465636;-10.607459;-5.8495064;-3.2304647;-5.045226;-7.367123;0.25486934;3.9819405;8.051909;8.521622;5.2379584;0.25276676;1.0209143;0.47502038;0.4332434;0.257034;0.55153304;-0.19626631;-1.9786178;-2.7874115;-6.679395;-3.3583505;2.2069292;7.695353;8.411056;11.207385;4.426947;-2.0099866;-2.9640975;-5.437508;-0.88656366;1.5878037;-3.0073333;-7.1014647;0.06687869;8.786649;10.467826;9.362992;6.4812574;2.3165166;1.0357682;0.81323755;0.35407513;0.7228093;0.58477056;0.2882166;0.28414497;1.2122924;-3.1825612;3.212876;8.47622;11.38031;15.046151;14.055694;4.7444115;-6.032015;-11.4507;-7.484472;-2.6056862;5.5561843;6.612536;-0.017688932;7.18587;14.161768;12.437013;9.240719;5.712687;2.6545007;0.655303;0.5000693;0.2609633;0.62710404;0.82162136;1.5933454;4.1472034;4.3975296;2.30738;7.7509003;10.474953;8.758869;9.633718;7.0350175;0.22228286;-7.1884613;-8.74101;-9.020814;-6.6303186;3.3555532;12.07777;9.231822;9.897942;15.639211;14.975445;9.793489;6.647356;4.175505;1.1209214;0.18791768;0.73556644;0.112142846;1.4261762;2.6143436;8.295852;9.712304;6.0378256;6.9317765;3.4995942;0.23255709;-0.18617827;-3.7060916;-7.883308;-12.188115;-10.093298;-5.8549304;-1.4401883;9.095882;12.078992;13.58626;14.377674;16.830475;16.951946;12.713836;6.717448;4.1619363;1.5916686;0.89890367;0.25763676;0.38556463;1.0813488;4.6295915;11.310238;13.199279;7.3877835;5.222825;1.4260789;0.9868141;3.804199;5.048682;-3.5601685;-9.6768;-10.005371;-1.8794631;9.5669985;18.845953;16.866169;13.950418;12.332911;16.0818;14.791206;11.360266;5.905414;3.6277769;0.4548373;0.8624797;0.5626492;0.65657663;1.6690025;6.816753;13.359331;13.408487;7.7618184;5.359486;4.7821856;6.8289976;11.638599;12.509089;7.357732;-1.5501353;-1.5758231;6.880426;17.482557;18.6823;18.452494;16.436352;13.219532;10.133823;12.133819;8.533832;5.0134716;2.5228472;0.25699002;0.31881762;0.83108175;0.31398377;0.91959894;7.354593;15.716804;11.9587555;10.050258;8.282118;8.9195175;8.795497;6.913263;10.5394535;7.5324955;9.109997;15.676158;17.000736;18.267902;18.23906;21.427324;15.310972;9.477027;5.9442906;7.147787;5.7439156;3.923727;1.5514916;0.4864169;0.5727582;0.86294675;0.60204154;1.5718908;5.005944;9.577699;10.385314;9.636214;7.986192;4.998325;2.953408;2.740791;5.919991;7.9054656;13.22945;16.661825;18.514984;17.356237;13.710471;15.19642;8.845558;0.90948194;-0.14260069;1.7372531;0.89566064;1.5482256;0.9726762;0.4073363;0.7910184;0.89545304;0.26750818;1.0760359;2.6195056;3.7489865;5.84411;8.347343;9.515177;3.798516;-0.075475916;-5.254908;-6.485069;-3.7938938;-0.6612511;4.015204;-0.50594604;-3.0246677;-1.7616658;-1.0361177;-2.3071134;-4.4128103;-3.1701293;-1.2183557;-0.95720863;0.78172845;0.50641274;0.78460956;0.50234634;0.27971148;0.33333915;0.08663636;0.9078413;1.4749167;1.9169966;5.052125;9.125092;5.470514;2.5116558;-1.0598814;-2.8499143;-2.9483497;-9.280486;-11.707852;-11.092167;-12.022675;-10.595363;-8.538201;-6.9362426;-6.773813;-3.9154942;-2.1729696;-0.75794864;0.74375015;0.20563066;0.26336038;0.55727994;0.41490686;0.35651952;0.03975616;0.63326126;1.0007622;1.0510423;2.0512302;5.0953894;6.7673063;5.555501;3.477012;3.6630769;4.461656;2.877869;0.2666347;-1.8096775;-3.4141324;-3.7341905;-5.680846;-5.81665;-5.3482485;-2.6731296;-1.2731628;-0.24528602;1.0925226;1.332294;0.84162915;0.8937637;0.72495866;0.9303214;0.62317866;-0.059245687;0.26957127;0.14136922;0.16897792;0.27123982;1.3661866;0.8387812;-0.43831825;1.498838;2.4085097;3.2486947;3.675222;2.2193718;0.26583877;-1.0478879;-0.2009139;-0.3641583;-0.95542526;-0.9322673;-0.4744203;0.073684886;0.95325893;0.9390683;0.8995051;0.9111878;0.07908255;0.9612342;0.8026442;0.1979527;0.8328545;0.8202236;0.80420583;1.1487589;1.2245132;1.558653;1.465717;1.2599771;1.2531866;1.119544;1.6150807;0.5106092;0.5302892;-0.14803603;0.06810883;-0.071476825;0.24306545;0.47910663;0.1773674;0.342732;0.6189246;0.22959192;0.16467094;0.3331411;0.13188314;0.8916441;0.074098706;0.7617474;0.5519176;0.39003083;0.17637871;0.99633986;0.71188676;0.12407168;0.46606386;0.15198708;0.8166879;0.6243494;0.03518559;0.06552431;0.43263954;0.013488986;0.8080089;0.8283677;0.6233349;0.29622632;0.71277696;0.97506756;0.84812343;0.7495058;0.8032703;0.96607095;|0.97035366;0.5461974;0.6831263;0.21837401;0.7529203;0.54331946;0.42454928;0.46159887;0.46502244;0.25282896;0.66155183;0.044026613;0.8791527;0.95595276;0.6238923;0.4419106;0.24554521;0.9735814;0.119448304;0.28555274;0.7195222;0.44417632;0.17365271;0.98126376;0.25082546;0.065000534;0.17702085;0.24948204;0.6506979;0.85014695;0.6849991;0.15130019;0.9830799;0.8048323;0.6506091;0.21280983;0.2028851;1.0323876;0.95708054;0.856332;0.52472275;1.1001776;0.27869117;0.52977973;1.2094623;1.3672141;1.5139754;0.5434116;0.90192133;0.9705259;0.7618516;0.63309443;0.7006875;0.22613287;0.6918986;0.68653417;0.04713881;0.46951205;0.88260335;0.7872778;0.9597243;0.1151641;0.389687;0.7401128;0.35875145;0.64814293;0.91407704;2.1954224;2.4031093;4.090043;6.6637673;8.321609;10.311854;10.676959;9.434452;6.8932157;5.300791;3.477552;2.1713579;1.0191252;0.48838228;0.26302117;0.83686656;0.8914191;0.5138753;0.2014237;0.45429;0.65643054;0.062832445;0.81542844;0.669081;0.12484011;-2.647191;-4.6169853;-3.5927327;-0.040408123;4.7581415;10.069853;17.090178;17.181515;17.937763;19.281054;18.557354;13.736064;10.473472;6.746756;4.183337;2.7853708;1.618062;0.33924773;0.6210231;0.6588424;0.42106342;0.02529352;0.42005733;0.17493194;0.5544101;0.6499661;0.1360118;-1.4256196;-5.1314664;-7.3191266;-5.796179;-1.3315505;2.607341;5.1319866;1.1988821;-4.4434457;-4.413894;-0.6059982;0.5596017;3.0287569;7.6269155;8.660307;4.052162;-0.18484768;-0.98212993;-0.18081136;0.07478432;0.1429936;0.15011466;0.66076434;0.9392905;0.49999255;1.1024983;0.83814806;-3.1771963;-5.933355;-8.156209;-10.579413;-7.4805756;1.3119336;-1.4133518;-1.8596916;-9.718979;-14.332349;-11.203416;-3.928127;-2.9415662;-0.17217526;2.2419574;2.8839436;-0.3614622;-2.8002944;-1.7489507;0.5237476;0.119809836;0.9122989;0.80353516;0.5250866;0.47771448;0.88566124;1.414549;0.91878694;-4.4320583;-11.955489;-18.32657;-21.151783;-8.951931;0.96463615;15.637734;27.61314;34.20152;40.58665;36.985683;27.778574;20.78397;11.779678;5.46499;-1.4350752;-6.253018;-7.6641493;-3.6150599;0.053118687;0.5113065;0.5419937;0.5034941;0.24223447;0.59943897;1.0421568;0.4894929;-2.202706;-10.856806;-20.890516;-23.996677;-21.459831;-10.996651;-1.0551561;18.09836;38.786026;58.81855;76.75107;64.67011;38.729424;22.32465;15.179733;4.659155;-12.069306;-18.198917;-10.0771885;-1.1091484;0.7501438;0.36037976;0.5314941;0.6951126;0.71156955;-0.7357283;-2.9481351;-4.2384315;-8.036831;-14.073085;-23.604727;-21.513433;-14.101631;-5.3862224;-3.443758;16.383183;24.916527;35.7495;38.55255;29.619312;4.303243;-2.193014;-1.0839118;-1.6031089;-10.976404;-19.141016;-2.0755749;4.357279;3.475833;0.5280167;0.78287214;0.41631943;0.14295037;-0.99930066;-4.7908716;-8.431589;-14.131952;-18.186357;-22.569828;-9.897623;2.8081772;6.7246933;6.209761;1.168551;-1.8781879;-4.5504184;-14.081629;-33.77282;-24.79928;-24.630741;-14.724768;-6.0493608;-5.8096614;-3.836862;6.962787;9.348565;3.6002307;0.6559287;-0.1324473;0.59800756;0.6081963;-1.5599641;-5.2473264;-9.368839;-15.663407;-16.887949;-10.903601;14.839934;15.457258;13.559529;12.835964;4.774815;4.703468;-4.8023267;-33.67034;-44.86868;-24.71667;-15.738468;-11.622956;-3.0356016;3.3589427;9.131946;10.944466;8.016532;2.7893233;0.37989444;0.45490345;0.85069054;-0.23510036;-2.2054048;-5.6505423;-8.645163;-12.638886;-5.4088125;9.315231;24.835415;19.797478;15.223755;15.847401;31.116518;39.56633;13.673535;-18.995314;-30.361406;-6.0253353;-3.6383913;2.4599154;1.0476329;5.662108;14.13008;16.481926;7.8240805;1.6437552;0.76616025;0.32345328;0.60697347;-0.50707185;-3.4085863;-6.4743376;-7.6180563;-6.598867;1.7293593;11.883332;15.308076;16.495485;11.489518;30.109571;56.996983;52.79403;25.05412;-1.0747122;0.94928;19.046257;14.748932;7.1766458;1.1243477;7.021243;20.182165;20.46142;7.4676037;-0.19079785;0.06047424;0.5366226;0.356575;0.10599331;-3.1842232;-4.1386666;-6.0235777;-0.97286594;3.693379;6.4138083;10.732169;5.1042347;8.952725;30.441477;48.44017;34.698944;11.885973;5.5391836;20.887669;18.389292;12.799864;1.5387263;-8.312283;1.6020072;17.10482;14.982622;3.6972747;-2.1663456;-1.6441786;-0.38581425;0.92343616;0.285322;-1.1546887;-2.6519082;-5.4556704;-3.1980495;-6.482146;-5.9922447;-0.033910424;8.46397;11.671011;23.122852;20.681107;10.986822;2.8405962;7.2641277;12.8753395;4.7963905;-7.0165973;-18.03532;-13.76521;4.9127736;13.588986;9.894821;1.7474648;-2.331797;-0.97146785;0.106146485;0.71382606;0.29721916;1.0424695;-1.1650673;-4.3123403;-9.319493;-18.698517;-15.430261;-1.0899266;11.015068;19.131546;20.776173;0.05674849;-12.816717;-12.57348;-7.201419;-7.333226;-13.33426;-20.927145;-14.603702;-3.4703023;9.979818;15.413088;6.7186394;-0.87596935;-5.76201;-1.2832425;-0.051408958;0.8562673;0.14231971;1.500285;-0.079737484;-5.42506;-13.725025;-23.28316;-22.237215;-4.842358;12.091699;24.459654;22.77255;-3.2898853;-21.968039;-35.77778;-36.474586;-29.310604;-23.347898;-10.805487;-1.6315932;4.564271;9.803007;7.3489594;0.66301084;-6.286226;-8.624798;-1.5307176;0.42278734;0.5468447;-0.00760301;1.636899;0.6453959;-5.2844515;-12.291992;-11.815362;-11.136226;-3.4440277;7.9853616;11.093744;6.902107;-12.103311;-41.41228;-65.0651;-48.033897;-20.37318;-1.9213508;1.8699797;11.377817;11.357199;8.420355;2.9047613;-7.3951826;-12.480594;-9.760018;-1.4416128;0.7656156;0.4946727;0.33048713;2.2833934;1.7859561;-5.297757;-8.53148;-0.099542595;2.2724693;7.9475584;4.1126723;2.444896;-1.9162341;-28.154255;-54.58879;-64.79572;-32.09042;0.8605368;19.202627;19.01934;21.483225;16.080296;7.9404416;-3.8054585;-16.517477;-18.565895;-8.357695;-0.5578097;0.47383985;0.31695566;0.43270758;2.8771853;3.8967898;-1.6047915;-4.117439;2.4059653;6.4962935;12.182507;9.3314905;4.587164;-4.0506744;-23.012009;-43.4193;-34.769493;-13.237657;12.460317;20.756958;15.823401;17.47866;5.8656054;-6.9710603;-17.251085;-24.053976;-20.419796;-6.298762;-1.0741556;0.30616286;0.2736026;0.99480075;2.4054601;3.9991286;0.7290097;-0.03390046;0.32750714;7.2986465;9.674525;9.003961;13.373755;9.344323;-5.1536345;-7.7142305;-10.972879;1.5965073;12.259632;14.658957;8.860272;4.1555915;-9.873966;-18.281075;-23.294062;-23.32173;-15.295869;-3.4159803;-0.16242538;0.11392906;0.47515222;0.38412747;0.88233596;1.8775514;0.2882976;2.083261;0.6972727;2.8524044;3.3365371;6.9003825;10.832212;16.236048;18.45741;20.668787;9.738095;8.517722;11.302512;5.4593463;-4.4588847;-12.3552685;-15.828985;-17.899271;-19.200354;-13.485784;-5.859339;-1.276971;0.09133213;0.5317524;0.53095466;0.06396317;1.2122211;1.1953877;-0.47859326;0.03619456;1.474123;-0.0064527527;-3.019104;1.7358731;9.752022;23.946075;26.25022;25.840324;13.159451;5.710567;5.250945;0.6182289;-8.65685;-10.665405;-18.14166;-18.118296;-11.093109;-5.3619537;-1.6297896;0.112309985;0.8363798;0.85332465;0.90491056;0.587326;1.0772817;2.497218;0.9869398;-0.6158862;1.0356774;1.4829857;6.460505;11.123403;21.68746;28.045433;25.970566;24.112627;10.944279;1.7879381;5.776632;5.1993523;-1.3045176;-6.758679;-11.371726;-7.7199097;-5.076644;-2.5704484;-1.3100519;0.7473576;-0.0443323;0.16049528;0.95132107;0.5504238;0.426917;0.98675054;1.2594359;0.38407966;2.3577664;6.7868905;13.504493;19.372673;26.370926;24.020466;21.153982;21.739967;8.294813;9.236082;14.754849;15.955286;11.523571;5.968729;3.1913638;2.0246387;-0.022558706;-0.1192623;0.037103225;0.5171024;0.704176;0.4296195;0.98335797;0.9358312;0.105784506;0.17213659;1.0880587;2.3090296;3.6349356;5.8834767;7.6308208;10.606988;15.256773;10.269689;9.672966;13.278285;5.817592;7.751393;17.885351;23.201887;21.973143;15.543337;7.366511;5.090811;1.7897255;-1.3241867E-4;0.46886793;0.54130423;0.036906928;0.11383009;0.826454;0.342821;0.90747124;0.30252254;0.715242;1.4200025;2.9804327;2.8370192;2.3714135;1.40104;-0.81574655;-0.9854272;0.47947153;3.7090547;5.564313;2.2729037;2.9576056;3.7308276;2.6403282;2.7446046;3.4754856;1.9917057;0.9835355;0.55830944;0.36830598;0.012820423;0.07286769;0.5468315;0.28221583;0.50926954;0.3638897;0.0047551394;0.39725915;0.21648118;0.867966;0.06666991;0.17163599;0.035939235;-0.15027471;-0.21883771;-0.3156652;-1.1699566;-1.085371;-0.4423599;-1.2349551;-1.0308737;-0.6796354;-0.468381;0.25865823;0.7815371;0.70068055;0.34270987;0.09677601;0.07420343;0.079726934;0.36967963;|0.111771464;0.8820534;0.9307306;0.023632467;0.5265835;0.40952212;0.12248641;0.5962287;0.43224025;0.87314117;0.9571417;0.024805069;0.6312774;0.67469156;0.22993933;0.29442158;0.21917593;0.8979105;0.58062536;0.30244684;0.76421756;0.86331576;0.16904527;0.9989415;0.063742876;0.41651362;0.8227943;0.43937588;0.6209381;0.9057857;0.47668958;0.94134146;0.8517402;0.9322105;0.60809034;0.9482466;0.22224167;0.60878795;0.6841071;0.9682415;0.73991334;0.94650257;0.21989235;0.94920826;1.0887225;0.8625798;0.8664058;0.27119696;0.68908817;0.38155603;0.13085277;0.34775263;0.08989251;0.93220896;0.53141165;0.22288877;0.040206015;0.469858;0.44947523;0.10926026;0.744722;0.8768333;0.20441806;0.13219592;0.6264489;0.73413754;1.2892407;1.9205275;1.003017;1.2218549;1.6985888;0.94923025;0.739408;1.0204806;1.2336364;1.6435459;1.4980115;2.1607158;1.439489;0.9974369;0.48917335;0.66424567;0.3000728;0.48487055;0.3747806;0.26947552;0.8247014;0.2349587;0.19676621;0.71205187;0.6066189;0.9255102;1.18268;2.5973876;4.4662104;3.2745674;0.05917295;-1.0647776;-1.0066335;0.26143178;3.5876594;3.2816048;3.9485803;4.6028805;5.646285;6.1844273;4.750968;3.0678935;2.2984219;0.71988463;0.5325217;0.63164717;0.093456626;0.79087985;0.16081804;0.15272667;-0.035834305;0.6402694;0.8925593;0.6452347;0.4110509;1.5716822;0.85318106;-2.5884118;-6.088199;-7.947688;-6.536614;-4.528716;-1.1680375;2.174547;1.7631905;3.9121838;4.5723133;4.0278454;4.036807;4.05601;1.8348886;0.60467005;0.7476915;0.37967435;0.61781925;0.5928529;0.61119276;0.9659374;0.060358357;0.89399934;0.3660469;-0.79793614;-0.78457224;-2.111518;-5.6542354;-11.14737;-11.619866;-12.042728;-8.355136;-8.195653;-6.0994196;-4.3633056;-4.4170055;-1.3814185;-0.3590178;-0.29526863;-2.4603636;-1.9866873;-2.0451992;-1.446747;-0.10448294;0.75876695;0.99609834;0.19966339;1.1165494;0.3054911;0.8954763;0.20765337;0.7362614;2.0403264;0.29778647;-2.70112;-2.5668466;-5.449887;-11.502569;-11.837795;-15.634349;-11.5942;-6.425092;-4.8491755;-4.497631;-2.4180667;-3.0827537;-2.5827837;-6.5317526;-8.652955;-8.774973;-4.9183784;-0.5846416;0.4889889;0.3624662;0.62351966;1.1707217;1.5651791;2.0912082;0.7730634;0.89453995;0.8968399;1.2412351;5.8909926;7.8240843;6.6113157;1.227246;-3.23031;-9.227817;-8.610362;-4.2218823;-0.6431986;3.8236792;3.836775;2.5325403;-1.5313121;-5.56046;-11.432181;-14.039168;-8.3332;-1.2804263;0.3327868;0.01145616;0.46555027;1.528298;1.391096;1.9830947;1.5155327;0.190056;-0.33262497;1.384734;7.0692863;8.098487;8.190744;4.941923;5.2589407;4.780616;6.099858;2.153975;-0.6610767;-2.161372;2.3014987;5.345676;-0.9906487;-6.3185515;-12.922029;-18.025257;-11.2821245;-1.9941425;-0.39480564;0.17299311;0.8149304;1.1308209;2.5698833;1.8974854;2.4835382;2.3397448;0.01962286;-2.4215612;0.538816;4.165672;1.6082736;6.1804414;9.368535;7.994993;6.617708;8.327939;2.927708;3.2208714;4.942264;1.528433;-3.2770712;-8.824249;-15.638342;-18.464268;-9.766344;-1.5855572;0.8571636;0.026050974;1.0090027;0.99552697;1.3615794;1.0162355;3.570281;1.9314175;-0.4192849;-5.4247613;-0.5657529;-0.03484972;-3.473861;3.2019708;4.9230914;-1.3514853;-2.0302565;4.7369475;8.268846;5.524407;3.055208;1.946942;3.3706698;-1.612208;-6.672424;-8.260962;-7.8077793;-0.7589615;-0.13597605;0.9104525;0.61785907;0.54057884;1.5979168;1.5618935;1.5305299;2.6598394;1.575499;-1.4879453;-2.2333956;-4.8851886;-1.8305365;-0.96285343;-6.673348;-16.732336;-14.344051;1.1614511;7.3839493;4.310518;2.646911;7.5319924;11.554291;10.062092;4.3158846;-0.8150907;-5.6236396;-1.0368183;0.3833568;0.45710725;0.4124317;1.5587034;2.9143825;2.5276031;2.5279517;3.7063248;3.7355542;2.3561785;-2.0617208;-6.558494;-3.7930446;-3.2778106;-19.586477;-32.91277;-19.974514;1.1632041;6.103259;0.9764969;0.15319915;6.476997;12.415894;17.50629;12.907592;6.4082265;0.30654338;0.025272926;0.904095;0.47073132;1.1085342;0.99050546;2.336612;2.8975239;4.2848473;4.779711;6.4399834;1.8346609;-3.5609543;-6.912359;-5.8847523;-10.932365;-31.75849;-36.254616;-14.921522;2.795093;4.6088953;0.2264469;4.6762433;11.441121;17.407156;20.288923;17.327751;8.784815;1.4527965;0.30431184;0.88578665;0.4086804;0.6125161;0.8290629;1.120082;2.9067273;8.680714;12.283377;14.060541;7.350702;2.3274798;0.99300414;0.119245894;-14.185221;-34.63194;-29.543114;-5.9510446;8.599414;7.716536;13.86055;19.737474;20.662321;22.355145;19.96281;15.956093;6.621429;1.1841713;1.0215876;0.8430283;0.431257;0.61648387;0.8751174;0.9072097;2.0317814;12.334621;19.046577;23.135973;20.01426;15.030481;13.439129;2.3434663;-16.992908;-33.88445;-16.289537;5.0495505;14.580125;18.516592;20.631374;20.245338;20.678305;18.427383;16.731161;11.797892;4.8649874;1.7076252;1.3271356;0.7179737;0.18140915;0.21476166;-0.7755492;-0.31998193;1.9953123;12.29385;18.43256;24.001898;29.02543;30.009115;27.665388;11.332862;-8.424983;-14.570185;0.04373925;11.0623045;13.951164;16.038128;20.292768;16.00132;13.709513;12.681289;11.897851;6.603629;2.7689111;3.4044814;1.6446853;0.93622273;0.8302123;0.56739587;-0.5841887;-1.5099702;0.012403568;7.45008;8.653325;14.293631;25.123472;28.861681;32.796608;23.236256;11.669397;7.317415;9.952415;10.578879;5.2596283;11.629652;17.223423;12.608054;8.944448;6.205748;6.227659;3.1755812;3.6476977;2.8506293;0.3752717;0.67071956;0.23248243;0.51364625;-0.007957051;-1.3324957;-0.82164055;2.1597047;1.7087618;4.3824453;12.069127;16.398233;20.88313;21.92548;20.242588;14.029471;9.537933;3.6211903;3.6154501;11.515796;13.998555;10.642381;3.7742686;2.5778875;1.7951189;0.09580337;2.2425327;1.4755596;0.43739563;0.9819559;0.18232095;0.9376244;-0.0104004145;-1.8776609;-1.2712629;-0.12554431;-4.1502595;-6.6304293;-2.304766;-1.1743338;4.6226306;9.759112;14.049857;8.563438;5.2734466;-1.275992;-4.436584;0.36000767;5.934341;1.0878564;-4.078111;-4.0720468;-3.0695863;-0.014845991;2.2872286;1.2398552;0.69025564;0.6345529;0.05253941;0.70155793;-0.12859423;-1.8735795;-3.5749795;-2.7967827;-10.692504;-11.84033;-12.75053;-9.922338;-5.6154847;1.9749786;9.252267;2.8510413;-0.1934587;-4.0093365;-6.373794;-0.7127475;-1.6983119;-9.138088;-8.672007;-6.6146655;-5.203253;-1.6208038;1.5332271;1.048496;0.89330506;0.45599356;0.10180235;0.44519705;-0.45795128;-0.7933565;-2.7622426;-5.1347203;-12.567359;-12.54123;-10.149626;-6.962563;-2.9848535;5.5975385;7.1670485;4.144755;0.75100607;-4.5361323;-1.4992725;-3.8096027;-8.370362;-13.305059;-11.715339;-7.226398;-3.4245389;-0.89977217;0.9893431;0.6994663;0.3262856;0.8374058;0.9972035;0.1712297;0.23366705;-0.30121863;-1.43885;-4.4686213;-8.111246;-5.143256;-2.4292166;-3.7203;-3.1960824;-0.8352167;-0.43830106;-0.085283615;-1.2559607;-2.910425;-8.459305;-12.564713;-13.936126;-13.631106;-8.31438;-4.7892923;-1.0427225;1.0709984;1.1211224;0.46653345;0.07721761;0.7179612;0.7818719;0.8386288;-0.26233357;-0.57286835;-0.5892575;-0.53667873;-0.60565895;-0.2902369;-2.0998518;-5.276375;-7.555173;-7.3250303;-10.310422;-8.794097;-6.062796;-8.870329;-13.302807;-14.417278;-13.506129;-9.723524;-3.9816663;-1.81389;0.10467731;0.09886963;0.8088241;0.5039364;0.0067659467;0.74130887;0.31609148;0.47496897;0.09164873;0.24597235;-0.08167928;2.548865;1.7888768;0.99836594;0.60556376;-0.18501635;0.325485;-2.377476;-4.976801;-4.8281884;-2.969774;-5.5222616;-6.4468827;-6.0781493;-6.8248773;-5.5408072;-2.5408437;-1.116537;-0.24495274;0.9855966;0.7504076;0.9850382;0.37010416;0.28893954;0.7014566;0.009836316;0.16818327;0.6935999;0.84448874;1.2794845;2.8715026;5.093423;5.8796635;5.1321683;3.3653378;3.7483127;5.3203044;6.6416445;3.7184148;1.9464781;1.8903364;0.48103794;-1.3720654;-1.5214454;-0.72416764;0.16041854;-0.1136711;0.1797592;0.7634365;0.7869052;0.86113894;0.9529446;0.85944164;0.77914023;0.40327436;0.49682474;0.66640055;0.6220362;1.3088021;2.104995;2.494328;3.616204;3.9038846;3.5722022;3.6954086;6.63784;3.6875086;2.129237;2.0858738;1.763547;0.5352834;0.8311533;-0.20155206;-0.3613725;0.07912449;0.64260197;0.9124642;0.35733455;0.7282363;0.1996994;0.0635398;0.11486763;0.7724481;0.28494483;0.769023;0.19424486;0.47671935;0.9350923;0.3545721;1.1215277;1.1014107;0.33576703;0.54479027;1.1163547;0.90152603;1.0653234;2.2913842;1.7220387;1.0089225;0.62573713;0.5948014;0.76252615;0.906336;0.49165618;0.41126037;0.094000876;0.6679769;0.12237102;|0.58874136;0.16826051;0.37305713;0.5000065;0.51583505;0.83047557;0.8659241;0.2794093;0.8485278;0.61390024;0.41896546;0.92527115;0.35633647;0.67358845;0.47061405;0.0740827;0.43154472;0.62050533;0.838956;0.04223609;0.43906713;0.116782665;0.78781563;0.905906;0.55707955;0.19354987;0.2697497;0.065843046;0.760829;0.68190986;0.46129912;0.9827197;0.40474755;0.2372259;0.87688226;0.85432637;0.12808469;0.857058;0.40879676;1.0027363;1.0781817;1.0814527;0.15530713;0.99803156;1.3914009;0.451661;0.6216278;0.2909538;0.27978903;0.36526856;0.5827978;0.12973998;0.020837247;0.6291886;0.5717293;0.33138502;0.16926742;0.22297078;0.6739727;0.2983867;0.4002296;0.2545057;0.2184404;0.5772532;0.68380314;1.1967671;0.9480228;0.7740233;1.6775429;2.2154512;1.8887949;2.343896;2.3735998;1.6708354;1.8641489;1.526902;1.3539236;0.4543674;0.6160182;0.33349898;0.8691674;0.14034782;0.80874145;0.8138016;0.2559433;0.46795976;0.8819759;0.7939124;0.2457047;0.69100636;0.74595344;0.55329525;1.0156378;2.2092118;3.7545006;3.9119182;3.4597673;5.1402526;6.9150023;5.9522805;7.208439;8.168693;6.946257;5.2092366;3.3552887;2.7377253;1.1988516;1.1531836;1.0702233;0.34828016;0.004148364;0.7207944;0.774922;0.4002187;0.2150502;0.70689946;0.779622;1.1382104;1.2519087;2.027095;2.9040127;5.280714;5.71782;5.1965218;3.3557298;2.4838688;-0.49030423;1.3121269;5.658116;6.1612782;3.4092433;1.2560794;0.7658873;0.993037;2.2815757;2.4620316;1.8434432;1.1445231;0.25631297;0.5265766;0.31051373;0.7590114;0.70364785;-0.089058176;0.7366143;1.9640892;3.0384965;5.04794;7.5605483;9.072023;7.274433;-0.084668234;1.0443463;-3.9482353;-2.7659879;3.8321896;7.8579717;10.82632;10.918238;10.356352;12.556239;9.320581;8.420821;8.743967;5.438588;1.7387804;0.7992852;0.49264157;0.6588043;0.7226629;0.52942085;0.3271309;1.4204841;2.2382622;4.352195;8.338254;6.8871574;6.2476645;8.093989;-0.15322897;-8.110569;-14.887368;-18.18031;-15.6312;-11.705708;-2.6274862;5.039469;10.54306;11.19609;13.456308;14.846833;14.855638;10.237483;2.7937179;1.3958418;0.6213092;0.18188143;0.36145422;0.65725696;0.8006581;1.1475481;3.5101526;5.0234528;5.239767;2.6670206;6.22752;5.2882566;-2.724592;-9.518411;-15.718516;-26.005226;-34.702354;-26.514126;-11.197454;-3.5343676;1.3484421;8.530127;9.074896;15.434585;17.994839;10.420281;4.0155864;0.93183434;0.21251544;0.43211934;0.8448443;0.6609333;1.5386803;1.7137773;3.4790463;2.4309793;1.4375521;2.3265114;5.1808333;2.473567;2.5101902;-3.4246762;-12.866026;-22.605686;-28.581692;-24.48648;-7.554283;-2.493329;-4.3022456;2.5404627;4.5581574;8.298388;12.655804;8.624503;3.691767;1.2503765;0.23666845;0.014046445;0.11468069;0.9932456;1.192762;3.1711757;1.651476;-3.0943644;-2.2265306;-0.6078894;-0.31876993;3.7994854;3.997957;2.0706925;-2.3142385;-12.303195;-15.114291;-7.5925174;-3.9450114;-2.2790153;-8.140893;-4.9493046;-3.8065596;0.2769627;5.7902055;7.6671853;4.3342705;0.6682656;1.0148633;0.5864915;-0.039398;0.86992705;1.2994261;-0.2820879;-5.413621;-10.221285;-4.446366;0.96265817;4.1078835;5.2248573;9.365951;9.7310705;2.7945633;-7.4588385;-9.029491;-2.9888828;0.6085068;-5.1954703;-14.661263;-13.196235;-11.210447;-7.643676;0.002426224;2.9725966;2.8391023;0.22828728;0.11606758;0.6505746;0.8546327;0.99749714;0.62227684;-3.3450496;-10.0991125;-9.71609;-4.76474;6.725146;9.019848;10.676873;16.988096;8.2447605;-4.03647;-18.424019;-18.610188;-4.781574;-5.6836166;-15.657158;-23.832561;-25.943472;-18.54896;-11.207932;-3.9169083;-1.4245769;0.30105194;-0.06911577;0.7277453;0.42100406;0.62041754;1.0262843;-0.08770809;-4.5531654;-7.9312105;-7.4402857;2.427738;14.220528;15.210553;17.318565;17.334763;7.088171;-10.290961;-30.97208;-26.678692;-10.085852;-11.978144;-19.247726;-24.378141;-23.393002;-18.550295;-9.125961;-3.219487;0.40241024;0.83002436;0.6272411;0.83997655;0.20036416;0.4837196;0.40270555;-0.28968114;-3.5679984;-5.123152;-0.9739363;6.3234715;20.494684;21.119204;16.826733;15.923576;-2.4576247;-22.202337;-31.74538;-28.851435;-13.146486;-13.116457;-14.596713;-15.303904;-10.234365;-7.749815;-2.4920099;1.759348;3.4883401;1.0994021;0.35816315;0.9567692;0.41995895;0.3814764;0.4408058;-0.9139036;-1.0224841;0.77172637;4.587793;12.021818;21.035587;22.48218;21.85784;12.5446;-2.888757;-18.131636;-26.284712;-15.698767;-10.434335;-1.8645276;1.9292858;5.406331;7.2746053;8.380125;8.576845;6.453946;3.4899824;0.3990904;0.2637803;0.53380257;0.14620492;0.8997205;0.7641897;0.58869374;-0.706412;4.4920754;11.05963;16.68291;16.680948;17.910421;15.120108;6.070081;-7.6042914;-18.106989;-18.390852;-9.277347;0.7996153;7.81507;16.065674;16.756397;14.601937;14.090886;12.666025;8.746058;4.9603353;0.87224436;1.195483;0.23180695;0.2702256;0.87409824;0.4989337;1.1034715;0.5692325;6.6121926;12.532197;15.915458;8.370767;3.1938567;-3.1325252;-7.6470423;-12.998332;-14.378018;-5.680559;0.2891496;4.3993864;6.9694743;13.918971;18.11684;17.098455;14.415536;13.749648;10.152778;5.4542923;2.429501;0.9719524;0.88655204;0.08777875;0.24658582;0.040575955;0.32815993;2.2535899;8.861015;15.097479;12.56472;2.7466817;-5.929305;-8.168975;-8.33772;-13.138941;-11.257282;6.2227697;7.69158;10.591763;3.0540535;9.640353;13.914752;17.02783;15.758134;13.412226;12.25705;6.8932896;2.8407755;0.6479555;0.7407964;0.73169565;0.34332064;0.39962193;0.621417;3.6187117;9.99306;14.101974;10.318313;0.1964011;-5.950082;-4.894536;-3.2098422;-4.232225;-1.1659077;12.9003935;13.936562;10.34358;6.8117876;6.001922;9.809762;11.513942;14.2029;15.196016;13.342545;7.480047;2.5720937;1.1408619;0.49641392;0.99106055;0.34940594;0.22389127;0.1677586;2.7350252;8.269002;11.092171;9.628107;4.6311274;3.0164847;7.2145443;11.111764;11.5113535;10.886351;12.48672;12.930795;9.521761;10.548178;8.852615;7.105825;7.612599;14.051732;15.961151;12.719341;6.431881;2.532553;0.8384895;0.67817897;0.104965806;0.994864;0.32666174;0.2528911;2.348812;6.045498;9.174798;6.184614;8.614396;12.906587;15.199742;17.84125;17.64155;15.631627;15.196054;13.850339;16.183582;16.659603;9.324988;6.8654814;9.3905325;13.6023245;13.221258;9.523195;4.197286;1.9998538;0.93649995;0.7468808;0.07809474;0.097778805;0.7190395;0.8134937;2.747759;4.5780473;4.759435;5.152461;8.414396;10.155269;11.4907675;14.909542;10.713905;7.6863804;8.887118;9.493252;10.004477;12.840171;9.621578;9.673003;9.709369;10.2362795;7.8441358;4.963535;1.9984248;1.1226836;0.6638651;0.2738768;0.6856425;0.351566;0.50620544;0.1370121;1.8907008;2.4907868;1.1022981;1.9026258;5.076535;7.5157795;1.5404676;3.369192;-0.47355545;-1.8930982;-0.85699975;0.8683778;2.934974;4.894371;7.22219;6.6654053;5.6993585;3.1749785;2.2143753;2.2164385;0.91533095;1.1463995;0.7060369;0.93283075;0.6134558;0.76619333;0.6572453;0.23212494;0.9428827;0.51262164;1.0941719;-1.9110616;-2.429092;0.4776175;-2.7869303;-1.5073614;-7.8243036;-6.761101;-5.029114;-5.6309757;-4.7728057;-3.2616036;1.5631925;-2.0246022;-1.6376104;-4.4278283;-1.687561;-0.109234415;-0.16492426;0.04617617;0.81359583;0.6989543;0.91821945;0.27103055;0.4087275;0.7146152;-0.20554955;-0.58443075;-1.2596979;-2.9124868;-6.2894573;-6.0370593;-1.081015;5.209632;4.9952893;3.2845576;1.3150704;-5.472195;-9.355322;-8.987188;-7.479884;-6.900943;-6.7941527;-7.311345;-4.005854;-1.7678816;0.5851893;0.63170177;0.86929274;0.44066668;0.5142156;0.7857595;0.6823399;0.73015064;0.22677474;-0.086363174;-0.44493145;-1.8802142;-4.272661;-5.6331377;-4.9264784;-5.0043383;-5.9229426;-4.336897;-6.137053;-6.493679;-11.22297;-15.741147;-13.210437;-10.167076;-7.2201533;-5.4869485;-2.312978;-0.5013979;0.63514507;0.81546444;0.5353146;0.9530839;0.08893585;0.8512205;0.19012028;0.8146274;0.3249546;0.6008342;-0.14369953;-0.7178154;-0.61894345;-0.25864112;-2.1172297;-1.5825734;-1.8682883;-1.3447508;-2.6596332;-1.5785189;-2.6679158;-4.0410504;-3.568501;-2.4203367;-1.9778339;-0.279716;-0.07509823;0.4457224;0.7066796;0.7428566;0.32471216;0.08433616;0.3660739;0.037337065;0.76456547;0.1579507;0.65873784;0.06512473;0.45980197;0.6332208;0.090607345;0.1821745;0.43425566;0.30625954;0.99688584;1.0379874;0.1981048;0.7403593;0.674865;0.2379574;0.906803;0.84876955;0.4142862;0.71744335;0.79441845;0.7529711;0.3689624;0.8996404;0.79429436;0.72631186;|0.47682375;0.3974386;0.098817945;0.24236149;0.11697495;0.27581573;0.35424924;0.59681463;0.88140583;0.89107794;0.38917202;0.89836884;0.57636726;0.3130099;0.11586867;0.9362297;0.41548657;0.18569493;0.4079839;0.036107123;0.3493945;0.66319007;0.3385446;0.62490004;0.42323178;0.67273885;0.40285492;0.7612572;0.8861637;0.36849797;0.2088424;0.53338134;0.5714855;0.08979537;0.32358792;0.8412893;0.5249824;0.09267142;0.019203234;0.39646062;0.6859847;0.6598764;0.798696;-0.02326407;0.940132;0.21368839;0.9021187;0.2502482;0.08602875;0.91730964;0.9677549;0.53325856;0.1984148;0.29555392;0.40604955;0.019242108;0.08927047;0.17688781;0.47977412;0.6517259;0.18741909;0.20788144;0.30521077;0.5768336;-0.29034817;-0.8663789;-1.0444139;-1.0403401;-1.6928067;-1.203997;-1.3255483;-2.3555148;-1.7044928;-0.48505846;-0.7815673;-1.2424978;-1.5768391;-0.09193087;-0.18258794;0.32766813;0.84902465;0.9357731;0.498626;0.958738;0.2622441;0.5114836;0.96627665;0.7551292;0.57357204;0.14231923;0.6410617;-0.3608221;-0.882249;-1.6188902;-0.89471906;-1.1304994;-1.8916355;-4.0144625;-4.9973664;-5.621477;-5.129078;-3.4256399;-4.270318;-4.5270104;-3.9872108;-3.4039888;-0.89209104;-0.43316975;-0.2004813;0.53023076;0.46547186;0.7483331;0.5906192;0.27986798;0.42332262;0.1557927;0.6957104;0.72003657;0.4429488;-0.397759;-1.8361795;-1.5467634;-1.1041136;-2.0587323;-3.099539;-3.2208967;-0.85983336;-1.0092682;-2.4562225;-4.9928474;-9.180273;-9.1446905;-9.445937;-5.7840934;-2.1440415;-0.29144335;1.927942;1.0337669;0.10141493;0.86026895;0.878524;0.6668035;0.420092;0.23756045;0.33301586;1.2013093;0.73975646;0.04856337;-0.4711857;1.1033994;2.2117064;2.5767157;5.7597685;7.1600094;4.7484736;3.1429188;7.450129;7.93909;1.8812232;-4.219746;-2.8334887;-3.038495;-3.1664147;0.60795087;3.103622;2.788348;0.49160603;0.36167288;0.41088694;0.3049808;0.7959866;1.0834601;1.8504925;2.3671267;3.393331;5.6543775;7.725111;9.172264;11.060249;13.8176155;15.387528;9.236726;1.9009584;0.28697288;2.4834573;7.359618;3.5707235;0.14203402;2.3591576;4.8687305;2.4127803;5.583105;8.623116;4.1374397;1.4122596;0.7398542;0.5691605;0.58862495;0.12961099;1.0152862;2.4823258;5.372208;10.124275;12.958852;16.362015;22.597279;24.806736;19.70896;13.114071;-1.1018696;-4.772845;-7.5394626;-3.234342;1.605743;2.4346933;1.8871726;5.703995;8.450198;11.15314;13.33735;13.988864;7.2856183;1.7380573;0.9437054;0.5139379;1.3911282;1.4438431;1.7313737;3.56966;8.674455;13.987271;18.627443;22.572073;23.407148;23.038427;19.661366;9.892302;0.7444403;-1.1518216;-3.4399493;2.1582434;7.8687463;5.743065;6.693408;7.2198534;11.3171425;18.89451;20.661194;18.792088;8.611644;2.7508352;0.29290494;0.4266442;1.6438462;1.7621953;3.9399278;3.741088;7.612655;11.192532;12.533212;14.201368;12.094513;13.355127;13.686889;7.5361223;5.333214;5.794393;0.52968353;8.357282;12.051132;5.836235;6.1395607;13.175784;16.793062;21.58186;23.736012;20.007978;9.346604;3.5873039;0.9307877;0.37193695;1.8025775;1.9840763;2.7507005;2.4139805;5.262038;5.2481766;2.2697182;-0.9409455;-2.8534546;0.89892477;3.9663498;10.644778;15.965481;11.645384;2.199951;7.505001;6.889092;8.530425;7.523633;12.580067;17.171268;17.733742;18.630596;17.04524;11.01256;3.984616;0.21602237;0.5908479;1.3393248;1.5360186;1.231546;0.634274;-1.5500519;-3.3248985;-6.5088925;-10.155476;-5.684479;-4.34853;5.124435;12.096246;17.261105;-0.5510274;-9.56079;-3.2327135;-2.1453843;-0.6411634;-2.9356713;-2.218547;-0.2981862;2.6518066;6.093401;7.544665;5.3047543;1.5963987;0.8508278;0.067584336;1.1793034;1.8862354;0.9580205;-2.5204659;-6.5078497;-8.829481;-11.16607;-13.59044;-9.315024;-8.196775;2.0691643;10.410978;1.0312855;-24.459045;-27.94391;-12.785606;-10.579921;-15.947509;-17.931988;-13.729354;-10.641146;-6.6277876;-2.0849977;0.5739863;1.5283965;1.3965436;0.915562;0.4253093;1.0150316;0.5175598;-0.18106036;-2.9564672;-9.064235;-13.091719;-18.950623;-13.456787;-10.141911;-10.26757;-6.1220255;-1.9744014;-17.397984;-34.402554;-27.73303;-13.48095;-16.521568;-19.464737;-17.647192;-13.267825;-11.5711;-7.1180573;-3.507396;-1.9102155;0.7564093;1.0551652;0.88855094;0.8525113;0.35567087;0.18333039;-0.48800492;-4.281926;-9.012025;-18.137806;-22.88793;-16.394907;-14.222632;-6.823669;-8.792724;-9.875706;-21.563093;-28.532759;-19.527905;-16.91089;-19.82875;-14.35764;-10.270467;-7.1453314;-6.0975003;-3.3313742;0.12923206;-0.602299;0.56523824;0.78388774;0.16150695;0.40820625;0.33949545;0.02199378;-0.31408307;-2.2324216;-6.3740206;-16.299847;-23.215237;-20.894197;-16.587177;-12.779147;-13.423207;-12.346074;-22.444786;-26.828966;-19.164621;-19.60708;-16.96669;-4.847032;1.8750324;3.5924294;3.2711828;0.80047995;3.0254326;1.5292828;0.81348014;0.6495794;0.042468365;0.38516814;0.8289352;0.23644884;0.34468308;0.118078195;-2.0533388;-12.153551;-19.396029;-19.966022;-13.055585;-13.239985;-15.307235;-17.170973;-24.190775;-27.64815;-21.694538;-17.542412;-9.737357;-1.1459262;5.745218;6.1265306;6.240398;3.3105273;3.4411893;3.3878598;1.3822402;0.5943273;0.67909056;0.98693335;0.2281834;0.67561096;2.1088917;2.9107664;5.1257715;-1.0432876;-7.8088427;-14.167662;-12.573807;-14.105019;-17.93418;-19.96137;-24.894142;-25.400154;-19.019659;-7.569084;3.205638;5.348295;3.2250402;2.7292588;6.10055;4.443767;2.8832026;3.519737;1.6499518;1.455593;0.4937517;0.7490084;0.96293455;1.1889685;2.9962335;4.5273757;9.606822;10.898197;5.018753;-4.478663;-8.55942;-10.835686;-11.441119;-10.15189;-11.608156;-7.9888754;-5.728028;-2.2173827;7.0732374;7.672393;-1.0386254;-1.4756109;2.5742207;2.1049504;2.0520558;1.8816979;0.9001961;0.59774536;0.69468933;0.057106912;0.95490605;0.82345563;3.4574182;6.5851517;11.778518;16.528713;16.466787;10.34614;0.72704595;-1.4266849;-1.6087201;1.760473;1.1726961;-0.20330393;-7.096943;-5.019159;-0.18019533;-2.2762036;-4.3282027;-2.5228925;0.5026921;3.2148108;1.4115015;-0.4052471;0.5752825;1.0290631;0.03262975;0.5400181;0.1875601;1.2175926;3.1380212;6.391842;11.272205;14.939387;16.659027;15.976359;10.149115;5.204316;-1.129068;1.2085307;0.8581261;-5.682625;-7.9316235;-6.9398646;-5.2291284;-5.326558;-3.1125612;-1.949803;0.7209611;4.9191613;2.06034;-1.6465225;0.4172814;0.8617515;0.8164563;0.8187612;0.519956;1.3902686;1.430448;5.1146917;7.0357327;10.538791;13.05113;12.903207;11.091602;4.186893;2.6238983;0.3132928;-1.2957983;-7.8589745;-8.522586;-8.585036;-4.8776646;-1.3578776;0.9083824;0.98521566;2.8334522;3.8057961;1.0536953;-0.5886027;0.101012886;0.6307692;0.20367081;0.9085099;0.16109757;1.0383629;1.2987342;1.4547684;3.911675;6.802531;9.266013;8.564572;14.118816;11.2979555;15.510508;16.099962;11.720096;6.9714403;7.8893943;7.577126;5.2878428;3.013962;1.4340194;-0.26234147;-0.020556936;2.049821;0.40470806;-0.7110586;-0.09137438;0.92277616;0.031988606;0.52833325;0.85585016;0.046412975;0.944529;1.543824;-0.10229776;1.9314572;4.574168;5.7691927;9.34799;16.504845;23.338867;26.331947;23.679596;19.102905;13.753542;9.249144;3.4262006;1.6344945;-1.1385854;-4.770656;-2.340425;-1.5293832;0.14160761;0.53394866;0.92614764;0.49701452;0.5713998;0.13777983;0.6835656;0.6695796;1.4361006;1.137951;0.6616422;1.4541045;2.542745;3.6811948;4.477445;5.2169576;11.424762;14.572461;19.298132;18.786907;14.094795;8.826676;2.9866543;-0.36234897;-4.1851454;-7.7167063;-5.6995707;-2.280723;-1.0646152;0.7100852;0.41273293;0.8522974;0.83906704;0.157229;0.19456273;0.4147165;0.72171515;-0.29587168;0.09574622;0.5646046;1.2659022;-0.1408761;0.3003455;-2.8566031;-1.3016559;-0.6133325;1.9728212;2.8477452;5.195612;1.2079896;-1.632346;-3.394681;-3.83307;-5.859411;-5.2133207;-1.8541242;-0.8940945;0.6857026;0.934619;0.191652;0.084860325;0.54734164;0.33356696;0.88254625;0.33344597;0.5096877;0.9712737;1.1057497;1.284939;1.7391881;1.4604285;0.27272373;-0.37363267;-1.8220907;-0.81843257;-0.46626416;1.4772964;2.3392863;1.1716506;0.37086424;-0.27436382;-1.3337642;-0.7619067;0.033174574;0.83742785;0.59945333;0.43664056;0.33977866;0.39851832;0.7133927;0.60364133;0.7067482;0.016165912;0.06786562;0.17630367;0.2862431;0.4579185;0.35743454;0.6434383;0.82563055;1.1403246;0.3931097;0.29834372;0.6944854;0.87858135;1.3653864;1.117316;1.0395477;0.21744421;-0.594045;0.3237457;0.1833883;0.61334425;0.8346625;0.15719247;0.677517;0.48962885;|0.32708383;0.0053972006;0.35935485;0.5967778;0.88391733;0.40500563;0.28703874;0.72304565;0.9218678;0.55827385;0.84917974;0.04241389;0.5799641;0.63915455;0.65463126;0.96839756;0.8272665;0.12972128;0.2686473;0.050736904;0.42579693;0.4033152;0.39296764;0.4539572;0.49219012;0.6603582;0.14590555;0.7530811;0.48257464;0.3669567;0.41979992;0.47328365;0.31882718;0.0642114;0.9351011;0.80524653;0.6712898;0.6247512;0.6568559;1.0792232;2.5853229;2.2659578;1.4097145;0.9733169;1.4144197;1.1584526;1.0672047;1.5317013;1.5475283;1.0918753;1.2098829;0.73475564;0.55810964;0.7933335;0.77708936;0.38718557;0.413203;0.8710999;0.35585818;0.26448697;0.1443294;0.018203046;0.22456628;1.4867071;1.1434796;1.679258;3.5705903;5.5556035;7.2299557;9.70362;9.342669;6.91751;7.4594927;5.4374833;4.703313;4.3196063;3.2934895;2.3029742;1.4114074;1.1991183;0.68758696;0.8910526;0.1183784;0.95929754;0.63014084;0.1012159;0.19294867;0.65173304;0.57654965;0.08078328;0.58748543;2.3440268;3.6503646;5.879976;9.677163;14.211631;17.036173;21.238838;23.306992;18.789658;17.401466;14.044688;10.893168;6.603858;6.619443;5.5790277;3.1353426;1.1011306;1.5163789;1.181291;0.55391073;0.4175642;0.15051681;0.6442972;0.7589315;0.6335303;0.56643987;1.0783837;0.3544216;1.2702765;3.0299287;6.4841585;6.5526905;3.8810573;6.050743;10.585434;10.521115;8.426949;5.606335;4.0061903;5.9133534;9.527347;11.853388;10.318701;6.659257;3.8574786;0.77444786;0.4513692;0.59663415;0.19791673;0.49740493;0.47508103;0.71294314;0.5595955;1.2932624;1.2561125;-1.3158337;-2.8322957;-0.316545;-0.17951648;-1.8140991;-10.799511;-7.5281487;-1.6945956;5.267547;11.618087;9.669267;5.9676256;5.30447;6.3507166;4.6404543;2.2753506;-0.41156447;-3.0102577;-4.7466526;-1.6971918;-0.16564733;0.5960983;0.0031437278;0.6527474;0.7393955;0.3874309;0.6615132;-1.5799952;-3.4675667;-2.372671;-1.3877505;-7.243692;-8.66106;-13.529208;-6.9432163;0.50917274;8.158677;5.0167174;6.216709;3.1951077;1.5519758;-5.785622;-7.5106387;-6.7779393;-11.707535;-15.704588;-13.9823;-6.5064483;-1.0679563;0.57654727;0.7821404;0.6740651;0.90105826;-0.20116262;-1.1773698;-1.1151116;-2.8960042;-6.1332374;-9.833895;-11.075777;-10.733277;-3.8897321;-3.7460651;1.2756281;11.919889;11.317618;3.9572482;3.9324958;-6.5173235;-10.290306;-20.706585;-15.254436;-17.249397;-22.478048;-18.499815;-7.887697;-1.5311992;0.47932407;0.90120184;0.5887856;-0.08738129;-1.2300317;-4.481728;-4.334741;-6.395755;-6.7413325;-6.1229033;-6.947305;-4.8541627;-4.8866134;-7.8476777;0.011899978;15.649958;21.136684;8.419455;0.11347814;-15.22483;-15.8992815;-17.023111;-16.219736;-19.236166;-22.189064;-21.578314;-10.577483;-1.9397438;-0.2115642;0.93870145;0.32562575;-0.031148968;-0.7140349;-4.1884055;-7.227561;-10.379557;-12.408228;-11.850504;-12.026231;-9.004535;-11.959948;-7.9204254;3.8191643;18.70647;20.203169;11.975272;-6.1737266;-11.077821;-14.82466;-15.914515;-17.070482;-17.833231;-18.129595;-15.023146;-9.1066265;-1.179844;-0.1056719;0.8517246;0.341572;-0.004358186;-1.1241448;-7.0369544;-12.208889;-13.715854;-19.6901;-14.091764;-11.353272;-14.454393;-12.369422;-16.358522;-4.182163;12.692139;14.293708;-0.8280769;-13.417414;-8.454059;-8.5439205;-10.802846;-17.730076;-13.151609;-8.534507;-9.371216;-6.7541943;-0.93263644;-0.21602342;0.34151196;0.75556153;-0.263588;-0.373917;-8.519872;-15.151707;-16.868866;-24.202003;-19.8808;-19.56612;-21.076199;-22.650713;-24.706045;-18.079422;-10.698415;-11.293895;-23.78951;-23.804293;-8.630346;-1.0680903;-4.4797034;-6.117818;-4.9743037;3.8031917;-0.5935026;-2.8585305;-1.0956441;-0.3831859;0.24197902;0.5100796;0.4338794;-0.9355434;-8.499618;-14.202187;-17.663813;-23.749876;-24.425905;-29.460138;-27.301964;-21.061434;-30.690062;-32.0201;-26.673956;-24.89532;-34.393528;-25.372234;-10.3779955;-1.4668217;-0.6301265;-0.337829;5.661347;7.939049;6.210084;-0.76078355;0.7524856;0.37218335;0.42785424;0.7153525;0.12631997;0.020475013;-7.148532;-10.317262;-13.537939;-14.818244;-22.648397;-20.487404;-13.719534;-22.105915;-31.70103;-32.172455;-23.587513;-28.055653;-31.645597;-27.89272;-14.999893;-1.5954158;-3.550049;6.0504575;12.089198;19.071072;11.9912615;2.8943253;2.3126981;0.48142758;0.4643739;0.7771913;0.10698568;-1.1517175;-5.158086;-2.814435;-3.9283087;-4.9130087;-7.8132787;-4.4114695;-2.06724;-5.54532;-16.274506;-16.805305;-18.60142;-19.924839;-30.16687;-30.90828;-15.032327;-10.314445;-0.0030802493;8.451605;10.159794;15.615684;10.138125;3.6323528;1.9907553;0.24248001;0.78260744;0.15985858;-0.49653777;-1.0052109;-0.52077115;7.464592;7.0348887;5.2336335;6.076908;8.166531;10.335859;2.0406034;-17.938456;-21.081314;-17.805386;-20.138329;-32.14938;-32.423912;-18.458874;-12.490149;-1.5816354;5.4188185;4.6145;11.407768;10.732871;4.5923157;1.7387888;0.40755764;0.26414126;0.32085574;0.28335735;0.9004684;7.0908027;13.532262;15.16702;15.613115;9.229223;4.4085007;12.015926;6.039559;-19.195097;-20.2907;-10.370036;-20.773252;-28.515278;-22.912796;-8.991913;0.6041342;2.9287884;9.388366;12.025546;13.699092;13.546516;8.801729;3.1945136;0.91400325;0.5199486;0.85425746;0.69841117;2.1477158;13.186304;21.02941;18.374115;17.389864;10.388864;8.509539;25.962263;11.317894;-11.004799;-11.871938;-7.6612315;-11.924677;-18.56546;-6.4445505;4.4186835;10.743477;9.317806;13.030071;21.88233;15.621814;13.506219;10.384651;2.657953;0.49742508;0.69811004;0.7835971;0.08195619;2.796568;14.993308;21.699598;18.640783;19.540956;22.757057;28.685177;42.015186;31.981508;24.45782;11.324993;7.2594404;0.24254929;0.089082025;10.414195;14.9591875;16.874462;9.826463;18.510202;18.935486;16.740726;12.692789;7.0154767;0.7607601;0.23773532;0.80846834;0.19972351;0.14530125;0.35810697;12.165562;19.302906;23.55423;22.781067;30.877747;38.01778;44.81484;50.680523;45.87944;35.52195;23.875978;11.7691555;8.1054125;7.454174;14.280616;11.907042;8.776269;12.734722;14.6945505;13.4295635;9.320184;5.602785;0.45390582;0.51470757;0.74742484;0.8799868;-0.25894678;0.07160738;8.687557;14.729422;18.6861;22.162264;26.569914;30.051905;30.089;34.259792;29.792835;27.657007;19.55389;9.544231;8.800047;11.939419;11.212182;9.6551895;7.481014;7.127739;12.886397;12.943495;7.072791;3.6463926;1.7513077;0.11581164;0.33669552;0.05664168;0.19719574;-0.6047951;2.4250522;7.202821;10.301777;13.999281;15.470161;14.956638;14.339388;9.758801;12.852682;13.927686;7.862925;5.940617;7.38545;1.8659319;3.8636687;6.071087;0.09155833;6.3975835;9.450784;10.907361;6.0903206;2.1361592;1.3826212;0.694282;0.74991405;0.09703372;0.30946112;-0.40516186;-0.8836597;0.6925575;4.474366;6.411125;9.58757;5.884041;-4.34177;-8.184176;-8.175233;-10.630077;-7.4790716;-2.868543;-3.7887974;-6.6654406;-1.7111826;-0.7552462;1.0422982;0.7266896;3.2771988;5.859122;3.897412;1.1495149;0.99375665;0.007151425;0.93130535;0.36897886;0.7427119;-0.35282552;-2.5651138;-0.9092692;-0.5735914;-3.348042;-1.2752125;-1.4855347;-6.9672313;-14.563045;-19.587297;-18.661945;-17.869242;-18.51406;-19.198816;-16.491798;-10.432418;-6.2305427;-5.7673745;-4.6354814;-1.0250226;1.4044086;1.3878382;0.51550245;0.08840347;0.84302324;0.46102566;0.7031312;0.40965495;-0.6544746;-2.202717;-3.801026;-8.492664;-10.494115;-12.620651;-13.233236;-14.669885;-10.908187;-9.329983;-12.220144;-12.604421;-13.327461;-12.6723385;-11.250716;-8.706217;-7.805839;-4.6089945;-3.0199916;-1.9577653;-0.060764086;0.56693006;0.34481496;0.85386;0.19574225;0.9297892;0.58466744;0.25850105;0.45467195;0.1802268;-1.2417481;-3.1475062;-6.084904;-8.853588;-11.76294;-15.232128;-15.539079;-14.295124;-14.192197;-12.278366;-10.8342285;-8.100894;-6.09738;-3.5818896;-3.1482127;-1.2836941;-0.750695;-1.2052741;0.28357175;0.036801577;0.7824486;0.9460632;0.8582002;0.3003472;0.90651125;0.1708076;0.8817717;0.80755997;0.39553618;0.21908757;-0.34800723;-1.3483655;-2.0136828;-1.3429161;-0.8943862;-1.3863549;-2.3920882;-1.6550903;-0.88890594;-1.9513897;-1.5473669;-0.9046663;-0.9393258;0.08771816;-0.6347071;-0.014760072;0.26157728;0.44990915;0.57717943;0.99905866;0.1061303;0.14598691;0.45422095;0.16869324;0.19074094;0.6764868;0.28187656;0.82225925;0.022095244;0.65372306;0.87010247;0.039305218;0.4776916;0.5477011;0.2881478;-0.11550859;0.5682061;0.27768746;-0.32441825;0.18785702;-0.09588903;0.29315346;-0.0032392442;-0.13252836;0.19785841;0.3245905;0.3571753;0.40609175;0.57656515;|0.26725006;0.58416176;0.7735153;0.8100778;0.7460661;0.47663975;0.89478254;0.89934266;0.82312113;0.83091754;0.840187;0.69072574;0.9928021;0.46132165;0.19398536;0.011248939;0.11541855;0.15452224;0.3489712;0.5159993;0.83599854;0.49394298;0.5304513;0.96538925;0.5765289;0.369614;0.94809484;0.28422862;0.18366534;0.534421;0.32934886;0.4565097;0.32095182;0.71144414;0.33755916;0.36166948;0.072909646;-0.15499614;-0.078441426;0.8468971;0.3868883;-0.07191181;1.1496589;0.8244819;1.4570836;-0.43613148;-0.54816645;-0.07466802;-0.41800752;-0.31063706;0.2748772;0.77677864;0.9081535;0.8365475;0.94633126;0.5302527;0.59953344;0.945912;0.055349473;0.6583792;0.989293;0.05195352;0.7257347;0.023962032;0.022900525;-1.3312593;-1.9768325;0.7508648;0.21753618;-0.7173032;0.38716808;1.6459348;2.5377028;0.6332869;-2.1331995;-4.1737137;-5.6076565;-5.0103407;-3.0295272;-0.105464116;-0.02007026;0.5010952;0.571363;0.8527065;0.7765517;0.18876034;0.21232921;0.51268727;0.4290473;0.8525595;0.5821568;0.54751146;-0.03940589;-1.3535149;-0.39906043;3.6740243;7.652057;5.695736;1.4149535;0.044587743;-2.9893162;-9.241452;-12.825214;-16.525093;-16.522774;-15.312983;-9.313828;-3.6571174;-1.8284698;0.359456;0.8794948;0.39060962;0.0505926;0.3173562;0.37060553;0.013182016;0.7378938;1.6405728;0.9999223;2.7491403;0.7056763;-1.9167105;5.8150024;18.655602;24.593044;24.379465;20.985441;16.249748;1.2634645;-5.942278;-8.319463;-13.879159;-17.413973;-19.833424;-14.221026;-10.169206;-4.31946;-0.61050755;0.26297894;0.46594352;0.77251893;0.23426318;0.55033964;0.3841146;2.093046;5.0953555;7.056759;7.5518465;3.289565;2.4552054;6.372709;19.467388;22.746237;25.600752;26.810587;23.108448;17.100494;9.126941;0.63316005;-8.403009;-13.997258;-17.559824;-20.478477;-21.224077;-9.771031;-2.0693798;1.0463903;0.7198824;0.89247763;0.53789234;1.1207893;2.1232893;3.2955961;6.6554837;10.808753;10.896374;4.8383555;-0.70937127;3.350269;9.006068;19.334272;14.572728;7.6143556;15.933149;14.190034;4.6543927;-4.5170465;-7.6611905;-5.906707;-4.203387;-15.049469;-20.83798;-14.789404;-5.9629726;-1.048061;0.58874816;0.8220935;0.07644293;0.40668207;1.5945541;4.9950695;8.828489;12.354848;5.527293;0.09261551;-0.8988909;3.9894373;6.4370875;10.65514;10.712484;6.328513;7.236318;6.9829493;-1.5791522;-0.49844903;1.2670872;6.7067475;9.349021;-0.53627336;-14.757122;-14.411274;-8.461903;-1.5652688;0.45174292;0.743423;0.8514438;0.7229907;1.3478945;4.5084176;8.890951;9.629284;2.580614;-4.5657125;-1.9878988;2.1513636;-0.4156427;4.7778034;11.374202;19.494705;21.683334;18.041885;12.20842;17.132292;13.768393;17.224306;16.943262;10.626456;-1.9737196;-7.634771;-6.045786;-0.34641844;0.45615765;0.90138906;0.94364804;0.50603455;0.98425335;4.3634043;12.2422085;6.918506;2.5153913;-4.450717;-1.4266024;-7.587158;-9.087212;-4.785897;3.7402043;16.221327;29.514032;40.339546;34.37884;34.946438;24.6904;24.645643;23.86096;24.226418;11.76529;1.1967152;-1.5380278;0.28835058;0.34583786;0.069069766;0.21147585;0.49431735;0.4367711;3.6042116;5.363425;0.5171929;-7.65822;-9.38656;-12.500671;-19.917318;-32.979;-27.76316;-18.557737;17.556927;31.074345;34.501827;28.173761;30.76092;26.553432;22.41096;26.811798;24.169495;13.034282;2.9402592;-0.72819144;0.40739033;0.27014655;0.8747552;0.25661755;0.71998143;0.53677785;0.406398;-5.986152;-14.650324;-22.39907;-23.832333;-27.501163;-36.01749;-43.71531;-34.35747;-7.18277;31.167284;25.172028;6.5426855;4.6229773;10.76908;14.821476;13.899553;11.589631;7.3352776;2.5582325;3.6354039;1.1270063;0.8758645;0.502418;0.53570473;0.30780613;0.71616286;-2.0100484;-4.975336;-15.737919;-30.334784;-36.89;-33.170723;-29.993773;-39.28574;-42.26181;-22.368122;15.65972;38.355885;13.323124;-10.751596;-9.670302;-1.3545204;8.062734;2.725924;-0.47465047;-1.9340903;-4.8875036;0.4107856;2.8845224;2.1277168;0.5780858;0.8112677;0.24438578;0.4268518;-2.1265745;-9.963603;-23.088408;-38.41837;-36.886032;-31.90577;-27.181803;-39.685314;-35.429207;-2.9035578;33.174114;39.85978;7.102015;-4.5699544;0.34485853;-5.3605957;-10.73521;-12.378366;-11.098422;-13.291528;-15.112256;-7.4024177;2.57221;4.212931;1.7260894;0.4310075;0.01397926;0.26888472;-3.1236734;-8.410223;-22.608677;-35.71242;-30.70519;-23.398575;-19.472721;-31.387556;-16.889841;11.018291;42.962864;40.481068;16.83925;7.5964518;2.454935;-3.2303855;-18.64101;-20.62152;-14.420794;-17.11537;-17.52368;-9.241103;2.3362215;3.2074318;0.56965834;0.8045318;0.88523537;0.030617373;-1.0926677;-1.1546483;-12.460263;-26.557417;-23.65261;-19.128101;-14.062857;-20.388931;-9.160578;14.636688;41.305233;40.531334;16.364796;3.4692714;-5.6419444;-9.627659;-16.87213;-16.822966;-14.013057;-12.521468;-13.000283;-3.5394976;4.733997;4.6113033;1.4929878;0.58702546;0.5154446;1.6225505;2.495634;5.421559;-0.37313437;-13.706794;-19.518276;-14.732236;-11.365246;-9.134072;-3.1808739;18.14519;35.580036;29.478024;13.485697;7.8153014;-5.408019;-11.565749;-11.2500105;-15.822944;-8.330716;-4.916658;-1.8215061;4.629351;11.107638;5.3343954;2.0207732;0.58484447;0.124079496;1.9173427;4.605843;12.408044;10.88076;-6.3357244;-16.327873;-11.806395;-4.9470134;-8.009622;-7.9002924;17.617079;32.05637;23.904747;13.250011;0.37029475;-10.168357;-16.096666;-9.7482815;-3.9769802;0.7071226;3.2786856;7.757816;14.758305;13.025697;4.7594686;1.1193086;0.37941715;0.34284347;0.8025778;5.315386;14.291679;18.502296;7.410564;-1.1556181;-2.6386542;-5.662803;-2.1452053;5.215974;24.526758;32.32586;17.29075;-1.0887281;-12.931569;-14.325434;-10.792078;-5.7114806;-0.7953006;3.6638858;12.019386;17.238379;17.083647;9.485104;1.6591396;1.3507777;0.5342951;0.25824207;0.51463306;4.8688087;11.083378;15.521087;12.568209;12.020095;9.13365;7.3879595;5.3595448;5.049444;17.012074;12.547702;-7.6550446;-18.352116;-20.1815;-13.025834;-8.781513;-10.197083;-1.8758115;7.4123373;14.9767685;15.013989;9.046353;5.431582;1.4034718;0.76144886;0.3093679;0.990567;0.5193255;6.173711;10.449961;12.47208;16.228754;20.181467;17.097454;13.598167;10.757851;2.094902;-4.234844;-17.249727;-23.11075;-23.02636;-20.903149;-15.253492;-5.555564;-5.789935;5.2279415;11.139036;11.535295;7.278832;3.5452547;1.4569784;0.5564803;0.95687956;0.64982617;0.4869439;0.92575234;5.9004493;8.582325;12.44406;18.46297;21.26276;16.388771;10.398732;4.9669023;-9.734466;-24.153473;-27.025587;-28.070564;-24.69549;-14.82735;-5.8162737;0.5178474;2.2970238;5.899038;7.8211274;4.130527;1.9809146;1.3215804;0.2243571;0.83852345;0.0873366;0.38264123;0.31231573;0.79052585;4.5232587;6.5756636;11.538399;19.743536;22.74513;22.240936;14.464455;7.7974725;5.906212;0.62782323;-5.65524;-6.60974;-8.119314;-2.2837179;2.7244644;4.8955173;2.4558957;3.2182627;0.8004193;-0.017167976;0.21570717;-0.12182155;0.9324825;0.8133271;0.21648315;0.54748076;0.0966627;0.4752891;2.273819;4.3944325;5.0346966;9.303618;13.089665;11.657769;10.770287;4.6730943;5.2682858;14.113942;16.104416;15.356354;17.317162;15.223192;12.3981495;3.7232795;0.038538314;-1.9698782;-1.4368957;-0.68352467;0.36907157;0.40588132;0.08707483;0.11002112;0.06814188;0.82768476;0.8596652;0.29473218;0.58442587;2.5389967;3.048845;2.7130167;0.16730064;-0.9294171;-0.3772005;-2.7726727;-4.6016335;-1.3529278;4.3801517;8.853136;7.924786;7.823436;1.4832044;-2.4485295;-0.31272763;-3.218102;-1.2746031;-1.0713309;-0.74154407;0.33112738;0.31130478;0.6933161;0.57312304;0.6167631;0.15706629;0.89528537;0.317549;0.93242145;1.0231522;0.33572057;-1.8170441;-5.114873;-7.1995516;-7.2143536;-8.602175;-7.7570276;-6.6534333;-2.3280563;-5.1058617;-1.0626589;-0.6212434;-1.7891243;-1.8356543;-3.3022492;-2.4701583;-1.3503267;-0.26878834;0.7385921;0.16862543;0.6785141;0.9985736;0.46902597;0.8396379;0.21215874;0.6399896;0.7412412;0.7345456;-0.008405929;-1.151087;-1.0840858;-1.6230632;-0.878366;-0.28154585;-0.49014667;-0.38702685;-1.0646747;-1.913211;-1.0558548;-0.5214194;-0.97208005;-1.0964075;-0.3873195;0.29551497;0.43179077;0.68972456;0.8694788;0.29408926;0.17567962;0.4709431;0.9175683;0.10902524;0.926235;0.021694243;0.9151224;0.8814051;-0.024824271;0.20620938;0.3063626;0.6456991;0.48557484;0.7178406;0.6993698;0.8732955;0.72948235;0.38918406;0.009883162;0.7193209;0.62376535;0.8408998;-0.057440437;0.19427429;0.5624443;0.72788864;0.47090954;0.56421876;0.57148194;0.72733325;|0.038824916;0.73601604;0.1117332;0.1349076;0.8301391;0.5297803;0.46029288;0.98700416;6.073117E-4;0.9088794;0.4425512;0.12076241;0.5129981;0.41979438;0.80137944;0.76429313;0.29199046;0.97624904;0.3708257;0.22517997;0.7857974;0.5262618;0.88437736;0.7117215;0.12299228;0.37769407;0.727165;0.20732385;0.3812104;0.9454422;0.5828881;0.38922828;0.84874946;0.23909783;1.037045;0.5614947;0.34925753;0.29212067;0.93219894;0.7010593;1.0150974;0.6513362;0.05058705;0.35050413;0.7243934;0.14004685;0.3605042;0.035381265;0.48226395;0.4998029;0.6500632;0.17916402;0.9880276;0.17261821;0.17089206;0.7740999;0.60010916;0.81348425;0.31560284;0.500691;0.28589112;0.88501155;0.733246;0.26530674;0.3249578;0.23686144;-0.9221159;-0.8499985;-1.0729501;-1.6251781;-1.330923;-2.6409626;-3.376195;-2.497216;-1.352859;-1.375383;-0.81082696;0.14819343;0.0399866;0.7513195;0.8308284;0.52935344;0.8581592;0.7721905;0.7388187;0.18778926;0.37849027;0.44737232;0.063788325;0.23113866;0.03830268;-0.33861828;-1.3999796;-3.0159488;-5.185118;-4.18128;-5.101838;-4.1687107;-8.751601;-8.310625;-8.474152;-8.318849;-6.362268;-6.53295;-5.6977077;-4.110983;-2.842642;-1.3532642;-0.114969425;0.5422448;0.8059617;0.6488696;0.029970586;0.20889322;0.25784925;0.20809095;0.24556807;-0.8647668;-1.3331002;-2.2916114;-3.9443803;-7.003472;-7.8337784;-6.351282;-9.796433;-5.7139664;-9.376975;-9.399691;-12.330918;-9.797054;-7.620117;-1.9873493;-3.4271598;-5.148145;-4.8808584;-4.0419817;-1.6131656;0.5672906;0.96814257;0.6009245;0.17583072;0.35457462;0.4761491;0.13280241;-0.27493766;-1.8493364;-3.77073;-7.2028646;-11.236657;-14.48908;-14.473464;-17.459263;-11.689793;0.684632;6.727828;9.017621;6.477835;8.199487;8.5749035;10.360626;-0.41605157;-3.4857247;-3.7750857;-6.3986764;-5.7738566;-2.6347158;-0.6890381;0.2551083;0.0057300925;0.2988685;0.3657171;0.31707194;-0.36045033;-4.1946816;-7.695141;-11.009557;-15.294622;-18.259096;-19.279406;-20.178898;-8.86002;-7.8535643;-8.986294;-7.3320637;-0.3139306;4.5833035;5.664363;2.4583793;2.0217617;1.3854529;0.13754453;-8.675017;-12.709148;-7.531302;-2.3840225;0.18323869;0.382557;0.08257947;0.5984936;1.5097277;-0.94084305;-1.1488918;-2.1975734;-0.5275373;-5.694919;-3.6724486;-10.507402;-9.476565;-2.7999473;-6.1937647;-8.189127;-0.3274687;7.1606145;13.243215;13.248904;11.418749;7.6055994;5.8272023;1.5062546;-5.6702604;-14.150465;-10.764716;-3.6480353;-0.27749753;0.32163408;0.87106997;1.6166323;2.508129;2.5828688;4.016593;8.388553;8.803367;5.0224705;-1.8941796;-1.5209868;0.7639475;1.3792826;-3.31406;2.2745423;12.482518;21.935846;24.239653;21.044647;10.489629;6.0675845;2.9829729;1.3327545;-2.8955405;-17.129192;-14.978345;-5.162368;-0.7526642;0.30553046;1.217975;2.6056526;4.7564516;8.054635;11.704756;12.653798;11.756949;3.5880842;1.6855782;7.334468;7.460547;8.44414;9.525184;10.341289;11.359049;23.426876;27.896723;25.498898;16.240475;13.213143;11.457917;6.6136975;-0.9775767;-9.729177;-9.773017;-3.251183;-7.061852E-5;0.94765234;0.43645152;2.9427512;5.9367633;7.719034;10.846039;12.594906;12.094405;6.0297403;9.927146;4.594434;5.523738;5.670517;0.3582544;-3.474214;-12.514192;-8.659477;16.046843;33.26321;31.155123;28.011715;23.728704;26.43456;10.826306;0.16961998;-5.8629923;-1.7034798;0.7766957;0.85615796;1.2680737;2.4063826;4.8283467;5.131642;3.5895274;9.135777;7.948949;4.9943194;8.219989;4.793934;6.838858;1.6489114;-4.967901;-20.504026;-38.334297;-32.40831;-2.527806;23.79969;29.432512;27.970858;22.614107;31.66117;25.402441;9.509627;-0.76308286;-0.6837212;0.08974824;0.7110841;1.1093342;2.8112328;2.8161058;0.19905002;4.0486903;7.2550287;8.111199;4.7833962;6.192502;8.168344;7.7676177;-3.230783;-15.429533;-34.82011;-47.220192;-32.049686;-7.76534;10.979801;14.661011;12.485711;13.996272;26.843767;30.54331;15.345515;1.8037822;0.3445999;0.6321539;0.8719656;0.5692034;2.540017;1.9997743;-2.5706737;1.329891;5.981157;8.535583;-1.4082178;9.449546;12.705774;4.1524534;-9.95962;-34.34985;-50.191868;-53.661194;-26.476192;-7.5573754;4.926669;0.53806734;1.428864;6.363263;19.575005;27.606466;14.672721;3.9682472;0.25380844;0.7954271;0.010649879;0.1138761;0.8231613;1.0819365;-3.1342707;6.0271044;6.566056;12.488012;6.499113;8.350385;11.545936;-0.8518886;-24.6519;-50.66739;-59.605194;-46.829914;-17.813072;3.8054492;1.4939045;2.2339287;-1.478933;9.485373;13.223993;21.858599;13.750616;4.4952116;0.5569077;0.25578222;0.5992139;0.5744844;1.7856395;0.06625816;-1.4430851;7.6501536;6.1385937;6.5068884;9.26226;12.618659;12.46003;-8.971596;-44.78654;-68.94639;-61.876842;-34.919125;-16.777227;-3.4366426;-0.79201;-0.57865816;2.900013;4.492258;5.3390746;9.214155;8.002328;1.674671;0.7057361;0.34323105;0.55728215;0.6067773;0.8460593;-0.04617259;-0.22617868;9.878384;14.00684;11.448718;15.467728;10.18065;2.863969;-26.614035;-61.6304;-71.624985;-48.71682;-20.5371;-13.640346;-2.624451;-0.27978835;1.8919252;2.3731048;-0.58489347;0.5428958;4.38441;3.828404;-0.57656646;-0.49765006;0.58581626;0.045012593;0.398057;-0.06584977;-2.6616113;-0.5692021;9.403267;7.9159045;9.853698;9.987473;12.160015;6.3983045;-28.297192;-57.60362;-51.97384;-25.395035;-13.780924;-5.877127;-1.2151036;2.7105706;-2.7964683;-4.7958393;-7.518247;-0.78605765;2.3243775;-0.7857213;-1.6452966;0.06337285;0.603257;0.15923235;0.77763265;0.6365167;-4.965275;-2.2601357;1.3990915;1.4677377;4.8582883;7.620829;17.94456;10.07681;-18.78699;-40.304592;-32.938847;-20.719694;-7.6670856;-9.120054;-3.1642232;-4.200469;-8.903792;-6.0662003;-5.3018813;-3.333726;-2.9379203;-2.6650107;-0.54526913;0.44437703;0.3013308;0.6434494;0.50944996;0.045379236;-4.9140253;-3.1990292;-4.131146;-1.374439;2.0206885;3.0833712;16.655323;12.169325;-3.6773474;-10.951819;-18.739508;-15.872163;-16.635368;-14.045202;-7.748053;-4.5152617;-9.008879;-7.1782484;-3.3553061;-7.3840747;-6.8220534;-2.8330677;-0.3929875;-0.009178694;0.39560375;0.6673112;0.8064642;-0.18946443;-4.2507663;-4.8800178;-6.1090064;-9.628364;-9.665607;-11.331136;-0.76911056;13.767255;11.329693;4.890082;-1.6877817;-8.594533;-15.958711;-15.505383;-4.859217;-8.105755;-11.292853;-6.467812;-6.620724;-10.814584;-7.638715;-2.370707;-0.1479906;0.57361543;0.34192845;0.9205717;0.47902557;0.1461525;-1.0995004;-4.8617206;-5.302005;-9.477337;-15.061961;-20.63533;-11.012292;4.495345;17.329546;15.171995;3.688932;-4.508476;-7.5063434;-3.6432993;-6.2149463;-10.166999;-9.712355;-5.159881;-10.0882635;-9.147945;-4.60803;-0.979118;1.0553037;0.9892245;0.44918412;0.17920136;0.6523066;-0.05825795;-1.5497727;-6.446853;-3.3101118;-5.376015;-9.522007;-10.59294;-4.5834813;2.8458426;12.324676;14.618841;11.518452;6.439665;4.810225;4.1208615;-0.29922083;-7.3542027;-9.935151;-13.778452;-11.473292;-5.83037;-3.371073;-0.72058547;0.6324343;0.30576998;0.8468748;0.13311195;0.97766256;0.17819583;-0.12545758;-2.4634914;-3.1822903;-5.922291;-5.916527;-6.533975;-0.07030338;7.9874434;12.05833;13.857116;17.315588;20.230974;10.348069;1.8375896;-3.8738458;-14.7960825;-18.225605;-15.38028;-7.3263345;-4.2869983;-3.90899;-0.8335405;0.43600482;0.6858556;0.12002754;0.64119613;0.053752363;0.119772784;0.46476704;0.845369;0.31079358;-0.20744932;-2.0328991;-2.6846583;-2.0555525;-1.0415425;-0.8292405;7.8691773;11.914028;10.048315;6.1196866;1.0410686;-5.0339375;-11.575609;-11.415708;-8.989265;-6.619187;-3.459942;-3.147293;-1.4664451;0.23069537;0.6096016;0.21984571;0.9258461;0.7372454;0.47346675;0.7475029;0.46644294;-0.49074113;0.8300679;0.9891664;2.8392231;3.1206377;1.9197161;0.58927184;0.9824731;6.799914;7.9848876;5.8932757;4.100558;-0.42049542;-2.5968647;-4.758834;-4.512813;-3.2926528;-1.149718;-0.90665734;-0.4236019;0.4101797;0.7831143;0.8447865;0.7796559;0.17651081;0.35110837;0.80014205;0.47894022;-0.93456316;0.8769838;4.2139597;6.4369154;7.643933;8.827638;8.283018;10.606329;11.51983;10.785466;8.50197;7.537019;4.3418136;1.321154;0.6659975;-0.36379424;-0.84892607;0.16382442;0.4469346;0.51758856;0.7957544;0.35096705;0.7745819;0.53567696;0.43204367;0.1533624;0.13383198;0.4902629;0.33640212;0.8689763;0.8712711;0.73460567;1.2561553;1.2237039;1.2013726;0.8405058;2.2845693;2.2826939;1.8236889;3.656407;2.4463224;1.4509469;1.1853098;-0.10345559;0.5157482;0.68655705;0.4092178;0.6124761;0.4951355;0.4790516;0.7590386;|0.6648781;0.23891932;0.15833294;0.24860382;0.46350008;0.37674093;0.7259202;0.95480275;0.63963914;0.1913374;0.30560076;0.20656943;0.8757653;0.34725362;0.29759648;0.20434394;0.2168634;0.67103076;0.9245649;0.5648094;0.4884436;0.64883834;0.24042964;0.16181421;0.34823662;0.20632976;0.25936896;0.7451776;0.14050835;0.6222369;0.312805;0.18570054;0.9759602;0.4239229;0.6895211;0.8042563;0.38864034;0.6284296;0.17231011;0.91381204;0.6882485;0.23270231;0.9644613;0.9141293;0.58302844;1.1738987;0.44900703;0.36407006;0.9145523;0.71570027;0.8299431;0.36336794;0.1284855;0.9335266;0.5239141;0.49333817;0.52708143;0.9808831;0.35065103;0.46874714;0.40770495;0.40637887;0.6439775;0.060086437;0.8248037;1.6012236;1.8073243;2.842588;1.6674943;1.7328057;0.4567945;-1.536506;-0.8617774;0.81323355;0.72989327;-0.9791688;-0.75998324;-0.07444761;0.14652899;0.14465033;-0.054721117;0.1806139;0.8306298;0.9716409;0.79067653;0.00834614;0.64187104;0.524619;0.014851602;-0.3103154;1.1967411;1.7683493;3.3539886;4.5369534;7.0017686;9.40994;6.3313975;5.594;2.587636;-2.3818765;-3.76687;-3.2705207;-4.372736;-4.744282;-4.131354;-1.326166;-0.027790856;-0.5272141;-0.09399198;0.3866011;0.6843534;0.5690344;0.2865842;0.15654959;0.53587925;0.6233375;-0.5183746;-1.0519823;0.61193377;2.243979;4.2697372;6.9366465;10.109514;9.658716;9.128423;5.954171;1.3925908;-1.9944692;-3.8109202;-1.2884773;-2.0119584;-6.8954377;-8.88731;-7.7797065;-6.494583;-4.1522293;-1.2286755;0.08566169;0.4334812;0.11964063;0.053564012;0.22573584;0.7469292;0.79064643;0.32850504;-0.7365975;1.0651752;1.1176105;6.609853;8.483229;8.608227;6.425178;7.818429;8.024295;7.848021;6.566634;3.5879173;-3.0263236;-3.8269353;-5.199694;-11.406167;-12.0597725;-8.612279;-5.931314;-3.4013793;-1.1942796;-0.36530074;0.008919654;0.5993126;0.4574008;0.77832866;0.108206816;-0.73248476;-0.75166684;0.75000966;6.0666623;8.428388;7.8327737;12.316976;8.565768;6.710531;-1.2574339;-10.014414;-8.515765;-7.0252323;-9.69244;-11.879221;-11.989384;-10.534688;-2.7752597;-3.073031;-8.150166;-10.385103;-6.258113;-2.0428696;-0.41608593;0.5724491;0.676171;1.2998605;2.3478377;-2.0874548;-1.4373842;4.7021146;8.577246;7.5104628;12.75692;20.531721;14.145262;0.4800222;-8.588815;-22.901312;-24.334389;-20.391886;-14.852798;-10.908893;-11.192967;-8.010135;-1.2416092;-0.03520914;-11.554744;-18.337692;-12.778777;-2.0821078;0.30115265;0.01567841;1.1228257;2.7511077;4.8600726;1.3076348;2.2819877;5.4492555;11.939996;12.2785845;17.573765;20.130405;13.085815;4.814125;-5.565454;-10.862506;-10.979568;-8.742698;-4.5114913;-4.2924147;0.09811363;-0.21961981;-1.3709605;-4.1132593;-13.315925;-21.273363;-15.807519;-3.081988;-0.5937305;0.061331455;1.4150702;2.9660063;5.5261;6.832145;6.4303226;6.0017557;11.270462;10.878534;12.857397;12.891485;7.1467733;8.368443;0.20743115;-7.608894;-9.02159;0.31313974;5.300727;13.512957;6.5057464;2.7734199;3.495888;-2.2562587;-10.53831;-21.346386;-14.60311;-2.283034;0.23153771;0.80722433;1.1954714;2.8140533;4.7503915;6.9436574;8.822308;7.092724;7.909148;3.8463187;8.349515;8.816031;6.3875937;-6.4332643;-21.133959;-35.334045;-26.960552;-2.0015488;17.270973;11.80048;7.6382647;7.7805853;13.989026;8.25801;-2.1237378;-11.714959;-9.399211;-0.70290273;0.28986344;0.86552274;1.089725;1.752735;2.9832764;5.722944;4.6923437;4.4347386;6.0397434;-1.5322012;3.9709928;3.9075403;-2.5513673;-21.193048;-42.33181;-54.335167;-37.13174;-1.4851266;10.36017;5.8380094;16.432833;16.272272;22.766096;22.542856;11.134639;-0.930751;-5.199449;-1.2863041;0.5993052;0.44989145;0.76334745;1.594052;5.416622;6.4536633;2.4555643;0.63113356;2.9025888;0.22277455;-4.604362;-3.6391022;-7.4419503;-26.158934;-51.939297;-64.66505;-38.081314;-4.3891177;4.632584;6.973123;13.1768055;22.898674;32.222916;33.126442;22.42463;10.889392;1.565185;0.9043363;0.69312614;0.72806436;0.23732035;1.5587833;5.076332;4.6567144;2.3286273;4.0126038;5.117263;3.7024004;-8.26338;-2.5329552;-9.111161;-28.440311;-51.577183;-55.18507;-22.88739;1.2842276;6.8684673;5.8204746;13.840488;20.52709;27.35579;30.223038;23.594429;13.102175;2.669687;1.3554921;1.3476224;0.6005507;0.24013132;1.3782814;3.683593;3.997761;8.165853;15.217838;21.595505;14.183695;-0.583949;-5.315001;-11.244809;-25.468822;-42.023006;-26.763819;3.8903923;15.452676;14.815883;14.132423;22.249846;18.496243;18.935577;21.31354;21.102669;12.744776;5.315745;1.508049;0.40521726;0.91254914;0.44464764;1.6152794;2.0396397;4.624794;13.530222;25.029406;32.870876;27.181593;10.583223;-3.2174065;-17.82034;-32.387157;-25.465746;7.9366713;32.11233;29.045742;20.62686;14.332161;11.548964;7.9210825;10.463632;11.438147;12.840516;11.118887;6.6514215;3.2836378;1.1406175;0.97705406;0.5816992;0.49488577;0.92616904;2.9184027;12.437319;25.564219;33.060925;35.75867;24.667664;9.765224;-5.9440713;-3.3373303;9.279853;31.236334;32.29877;23.397654;17.741442;10.502161;3.9301012;2.6196237;5.2560763;10.579755;9.617035;11.223561;10.757604;5.865406;1.9062843;0.13883317;0.4239796;0.19376199;-2.17084;1.3307686;6.6604905;13.983475;20.153946;26.914854;30.799042;23.803009;28.68506;38.131927;49.548115;42.372723;25.685673;11.10858;14.768833;11.891959;4.353688;2.908678;2.172288;5.762995;7.887576;14.848053;13.101938;4.4432745;0.7158505;0.11832295;0.94470453;-0.7263303;-4.2321587;-3.837;3.541416;0.2519786;5.2212176;11.709904;18.411922;28.30107;37.004658;50.641727;51.62396;34.36784;23.113375;15.226262;14.557801;14.210543;2.9884717;-2.9560275;-3.9872699;0.037164778;7.633797;14.930098;10.541876;2.2015605;0.36520588;0.58544123;0.48464334;-1.8665817;-5.8816047;-5.527136;-2.158102;-3.4166474;-2.445005;-3.3360643;-2.852075;7.646161;17.657158;29.607264;29.173943;21.48173;16.41424;9.38595;13.182913;7.4819975;-4.9666085;-6.3296995;-9.695865;-5.026159;3.389298;10.924011;5.823547;1.9198203;0.804086;0.91944337;0.31573153;-0.62214035;-4.9612126;-6.829118;-5.5804353;-9.288398;-8.669509;-12.538281;-12.025858;-3.817004;6.2380424;13.572774;5.551441;11.147466;8.042194;1.9885485;2.756371;0.98046845;-5.168812;-6.911467;-8.979311;-8.280689;1.5014416;8.126098;3.486684;1.1174203;0.5156771;0.90374744;0.34086296;-0.30864146;-3.3137865;-2.6877465;-4.6525273;-10.198689;-9.157807;-8.576617;-9.256249;-3.532115;1.4524461;-0.54826045;-4.9602423;0.12448466;-1.4071723;-1.9131064;-7.3528347;-5.350543;-8.467598;-9.808937;-8.409173;-0.7388161;5.7801414;6.3813868;2.3519042;0.6061375;0.089843504;0.6495384;0.727516;-0.017413504;-1.4249632;-1.4056584;-5.270091;-8.637671;-3.5482543;-2.2019527;-5.8732357;-9.648553;-7.2043033;-14.446464;-16.1372;-10.787105;-6.918793;-9.666031;-11.968332;-9.704816;-11.829516;-11.558278;-1.5215428;4.214439;6.579644;4.35101;0.85773396;0.28118616;0.23125869;0.046440184;0.80340266;0.44197848;-1.1428277;-2.1141222;-2.7675607;-6.257571;-7.103052;-8.206625;-12.24762;-17.663235;-18.5645;-23.34048;-20.147675;-13.589442;-11.173873;-10.169749;-8.912511;-7.073277;-6.341738;-3.6893091;1.3115345;3.1057837;1.509846;1.6886013;1.0360961;0.82429314;0.94036394;0.37928265;0.52795786;0.10187443;-0.95787156;-0.47118574;0.025443094;-2.4498334;-7.399002;-11.345344;-15.9221325;-19.092154;-15.902935;-13.778966;-4.875503;-0.008331034;-2.605853;-5.1410475;-6.826921;-3.4476218;-2.4708366;-1.8669195;-0.7450714;1.1069149;-0.6268643;0.7464287;0.312727;0.69589096;0.81169164;0.6807742;0.30556136;0.3878287;0.72487193;2.216407;0.5239172;-1.7179745;-0.94617414;-2.2042234;-2.6819112;-4.921084;-4.790734;-1.094241;1.069784;3.5397136;3.157284;-1.3464701;-3.218367;-2.2881944;-3.7421136;-3.0222414;-2.5096684;-1.0122349;-0.2738558;0.06263429;0.91036534;0.82665396;0.22361976;0.90169114;0.85667384;0.57339436;0.6955013;0.6495329;-0.19496028;0.08911374;-0.058227483;1.4692376;3.7794845;1.9068907;1.3466898;5.7048564;6.604526;5.693494;5.091961;2.25744;0.73885417;2.017328;0.47568476;-1.3633878;-0.98481524;0.7433879;0.8877207;0.29163134;0.6184725;0.71372145;0.5593227;0.41564953;0.6204129;0.78580225;0.6820931;0.5249613;0.42673573;0.7211402;0.20515145;1.0464224;1.6289012;1.0262829;0.8981199;2.2534482;1.8692641;1.4932806;1.9451802;2.2510753;2.6516616;2.2893047;1.9171172;0.48232725;-0.17340524;0.08516802;0.9135828;0.44242918;0.58353174;0.8248117;0.29636967;|0.55734795;0.95442265;0.6421599;0.94639456;0.20087147;0.3485602;0.23040187;0.6419108;0.83292174;0.6852289;0.5193831;0.15832174;0.95551544;0.7140327;0.41894937;0.5676092;0.23463666;0.659686;0.8472431;0.42935348;0.2622658;0.7880929;0.7255749;0.09824562;0.5072922;0.0356434;0.59221035;0.9974195;0.48109323;0.38231224;0.9809941;0.2052747;0.37254786;0.2667821;0.12973316;0.8794109;0.79364365;0.68930674;0.22377963;0.81050235;0.13508338;0.48153093;0.33512607;0.05953296;0.030988418;0.7330768;0.2839041;0.7988651;1.0989425;1.0453328;0.28136835;0.54451865;0.7658719;0.84060514;0.87380767;0.5114296;0.9238171;0.8688328;0.2734875;0.7726886;0.675945;0.9876002;0.7047828;0.27113682;0.78943807;0.2788188;0.4657394;-0.12791257;0.23131411;0.85953563;1.1333598;0.88464147;0.9032852;0.787809;1.8649517;2.085835;1.8680699;1.1040585;1.1097326;0.8368583;0.21263704;0.45980862;0.35035104;0.34899455;0.69705176;0.7130709;0.9060515;0.36472315;0.5347087;0.38824147;-0.03269569;0.5887091;0.13549736;-0.13216396;-3.096973;-3.711493;-3.796349;-2.2900293;-3.129518;-3.6674645;-3.0854516;1.3492132;4.608264;5.9533877;4.7891874;3.0300295;1.8904883;0.8372886;0.48808175;0.12889591;0.42436063;0.098113954;0.20612407;0.49582517;0.1709919;0.36151922;0.15246399;-0.35131443;-0.4290584;-1.3159624;-2.5353408;-4.8934307;-8.557401;-9.708499;-9.844426;-8.843871;-10.100096;-12.173681;-7.779665;-3.0646443;0.79815876;1.9436274;3.261943;2.9604874;2.6620667;1.6757402;1.3246862;0.31398186;0.6526493;0.5114362;0.13703895;0.0988996;0.8121665;0.7726528;0.62339485;-0.40848666;-2.137432;-4.6059933;-7.6123066;-8.357735;-10.512762;-6.967666;-3.7611532;-5.87538;-8.447997;-7.3684945;-6.311723;-4.088712;-3.497993;-1.5645057;-0.35171553;-0.6388298;2.6108117;2.5981982;1.8019738;1.5363953;0.4815033;0.43622333;0.1244297;0.15179187;0.7812379;-0.20840569;-0.09335912;-2.561601;-3.7035217;-5.6737695;-6.26671;-3.4046698;-4.07985;0.019399725;-2.1579483;-2.7085474;-2.6167872;-0.8988795;-2.828732;-3.5231745;-5.3662624;-7.4117146;-7.606161;-4.2233334;2.308713;5.66822;4.4605293;2.4634972;0.5837307;0.4023893;0.8608865;0.8971267;0.6418145;-0.08016303;-2.5515494;-4.1307397;-4.914734;-3.8690417;-1.8897936;-1.8407543;-2.0415568;-1.2967688;-5.4657755;-7.503598;-8.732056;-4.404086;-2.8586485;-3.8260353;-6.1600833;-7.707121;-7.697958;-4.16607;2.5521176;8.394658;8.176003;4.7114835;1.1402786;0.38026166;0.93522966;0.89244294;-0.10083189;-1.3886267;-4.042347;-5.325763;-4.746005;-2.1728404;-1.8031529;-1.4350798;-4.581677;-6.323985;-5.085401;-8.73095;-16.818127;-15.476852;-11.376087;-14.899557;-11.712234;-9.200998;-5.9145;-2.3416479;0.7631008;8.578564;8.701578;4.8577046;1.539206;1.0612231;0.27151394;0.57963616;-0.29649225;-2.800619;-4.4443116;-3.9211745;-1.7573152;0.37583885;-0.18641292;1.3046204;1.6938934;1.6826926;-0.6709876;-16.114183;-27.564764;-25.85637;-20.761465;-21.03963;-15.529752;-10.671772;-9.813709;-5.121287;0.8926761;5.534671;6.45276;3.2246418;0.37089628;0.6356938;0.358512;0.095182;-0.005833308;-1.3371685;-2.3791492;-0.05447906;1.7920469;5.6902432;6.8640876;7.3376637;9.168837;12.175015;8.82357;-9.929177;-24.642334;-22.59366;-17.250858;-14.693349;-12.876865;-8.409996;-8.546596;-2.216347;-0.3550164;3.614629;3.725863;2.7327547;1.2660102;0.80863;0.38849485;0.12614757;-0.33181605;-1.3465565;-1.2259953;4.025489;8.746465;13.73599;13.195143;12.743195;19.413168;23.585556;20.762268;3.7025037;-13.6051855;-10.43937;-3.852841;-5.7533984;-8.404339;-4.743561;-3.9426184;2.583776;1.7442555;2.5378883;2.6338136;2.0193484;1.1414546;0.18546323;0.14116198;0.82990664;-0.06925783;-1.5609343;0.08591776;6.923135;13.871153;16.666773;15.780216;17.900318;24.430162;31.420853;27.481241;13.316062;-0.2967071;3.889744;4.0350447;-0.18626925;-3.2383435;-1.229485;0.31865418;4.266289;3.6182687;3.060978;2.2481742;0.9966075;-0.17229499;0.45813364;0.83409774;0.8897239;0.5776716;-0.633158;-0.29890504;6.9753942;14.862308;17.87438;15.0877905;15.866882;21.25957;27.679226;25.899809;12.401483;3.2487066;5.0991373;3.6267645;0.10020788;1.8403486;2.6698997;3.0743437;4.8375797;3.669055;2.6693873;1.5146154;0.6012819;0.23034024;0.5859706;0.41756326;0.780915;0.5912075;0.47995618;0.2163705;4.146886;10.961334;14.308323;11.096516;10.305607;14.5394;16.48488;13.333078;0.9223692;0.88311094;4.6715956;6.046678;5.085039;-0.3225717;-0.7763596;2.7433841;1.7461271;2.390154;2.7190409;1.2106968;1.6396842;0.77296394;0.7411217;0.40613943;0.9926895;0.6792122;-0.26757774;-0.9517344;-0.5135787;2.484283;6.166275;8.548362;5.5165133;6.9905567;6.4854913;3.6523304;-1.1800237;0.7583793;4.9413066;8.347535;2.9915848;-2.830442;-2.7453525;-3.5720196;-3.5845058;-0.5661585;0.44952935;-0.26669642;-0.15498313;0.1623874;0.40085012;0.23553023;0.83035;0.10076883;0.07180007;-4.396191;-5.8269777;-5.2926536;-2.1413343;2.6142728;6.819668;8.400036;9.856247;5.539291;4.4059634;-0.41849408;2.3233476;4.6223173;3.3611786;-2.425311;-4.4607377;-8.510419;-10.403391;-7.027581;-4.2016215;-3.6307735;-2.9914386;-0.62508947;0.06282026;0.45782876;0.083036125;-0.23500745;-1.6943151;-7.044749;-10.628718;-8.640171;-4.900625;-1.1219032;8.269339;11.958183;11.847442;5.2714486;2.1357422;-1.4730476;-2.4538453;-1.3253652;0.5816213;1.0528431;-1.8462207;-6.788608;-11.121274;-8.590756;-5.1661286;-5.9927807;-3.769125;-0.6105371;0.28551188;0.710861;0.17838778;0.15356544;-2.259629;-8.544009;-11.512293;-10.197462;-8.068853;-1.1316631;5.9879794;8.613337;7.280353;4.4294786;-2.358961;-4.877932;-3.988222;-1.647887;-2.1546254;-1.3693415;-2.4320047;-4.8530836;-8.122505;-7.229998;-3.9635117;-5.800756;-3.0077899;0.20819801;0.4004049;0.13951641;0.065764405;0.6422627;-1.94971;-6.8736424;-10.503837;-11.481022;-11.061879;-4.981682;1.3291129;2.8919027;3.2775855;-0.83230025;-5.4751596;-5.1746492;-1.0193323;-0.31594956;0.34868518;0.29866287;-1.4660366;-4.070477;-6.3976054;-4.1434383;-2.643165;-4.6048217;-1.735923;0.711026;0.3156641;0.9227744;0.05638991;-0.18516743;-2.566797;-6.9319525;-11.793924;-12.235231;-12.341047;-10.813365;-4.4035144;0.5712624;-0.57211655;0.08149764;-3.446112;-4.5553036;1.1854432;-0.021015642;0.39565408;0.34620225;-0.83702284;-6.2816567;-5.8406906;-3.3760948;-2.1300786;-3.3872283;-1.1019204;0.64184904;0.85252947;0.2694332;0.97681683;0.14420229;-1.2690908;-5.974496;-10.900695;-12.785438;-12.208298;-11.335849;-7.2711673;-3.5632746;-1.1310111;3.1740556;-2.9884596;-5.418131;-3.599383;-4.988955;-4.7952166;-3.55591;-2.726001;-5.4679875;-4.276496;-1.6097684;-1.4191837;-1.4724214;0.44986963;0.84612817;0.7750025;0.3947525;0.029166102;0.04849937;-1.1493522;-2.7858045;-7.0284786;-11.235099;-13.186284;-11.5887165;-9.364516;-4.5511427;0.49900988;2.8741705;-4.7080374;-6.024219;-4.7809706;-5.3205194;-4.1846066;-1.437735;1.0283611;0.58697605;0.66042113;0.57230616;-0.16629489;0.5333438;0.47638556;0.37347814;0.77384394;0.8488215;0.818776;0.23974413;-0.11196516;-0.9713076;-3.3214462;-7.8902507;-9.472366;-6.7599654;-8.469488;-6.9595704;-0.8108963;-0.6329523;1.2654191;1.5487427;-0.9693345;0.3223527;2.1859992;5.5680313;7.2230506;7.7495527;5.3106;2.3920147;0.4068699;0.16815257;0.40519354;0.73795485;0.07832891;0.45338094;0.5619446;0.16532868;-0.009395615;0.21048507;-0.74956006;-3.0213006;-2.6349375;-0.81503195;-1.6911458;-1.213348;1.3589022;1.9248133;0.21675676;3.313462;4.110109;4.346672;6.200349;6.299334;6.9043946;7.7505565;5.7720394;3.923662;1.4384676;0.68744755;0.91488564;0.8821752;0.95718783;0.6376266;0.35764134;0.04672873;0.59831333;-0.18890074;-0.2733031;-0.3301177;-0.58868575;-1.1754451;-2.4700148;-1.3788335;-1.3909184;-2.6615946;-4.356579;-3.641221;-3.2634385;-1.6971436;1.5811262;3.1928594;4.034236;4.3132787;3.5622108;2.9517057;1.146794;0.96833396;0.86143684;0.13546965;0.06247157;0.020420492;0.929307;0.92852414;0.9611582;0.42380828;0.6343521;-0.5099428;-0.68071526;-1.6089025;-3.5635283;-3.753495;-2.6068337;-2.370108;-2.5343482;-2.5411053;-3.4432456;-3.0426643;-0.88486385;0.91698545;1.5772974;0.9344303;1.1873424;0.46610004;0.40965468;0.11305212;0.678061;0.056209683;0.74277794;0.60470164;0.8224848;0.227974;0.680129;0.3575999;0.26561555;0.58523315;0.2094029;0.104730636;0.7026309;0.13836622;0.34134796;-0.5703908;-0.45654702;-0.12038662;0.33351648;-0.25260705;-0.7518267;0.46005875;0.42174092;0.9311676;0.17670204;0.18720154;0.21850918;0.20570064;0.6437527;0.86103374;0.28496253;|0.06314027;0.23823464;0.17450428;0.27780122;0.121399045;0.014160156;0.46815103;0.6290292;0.3413558;0.5206012;0.43394774;0.9616267;0.9125002;0.7826716;0.47105333;0.115733996;0.6251633;0.77958906;0.2489515;0.8303553;0.55993176;0.75159246;0.58933276;0.13267761;0.052035928;0.32846653;0.2319352;0.72607225;0.14732683;0.1758498;0.8714866;0.72390395;0.6918284;0.9898936;0.7524532;1.6219662;1.3778934;1.6500694;0.51923335;1.3374089;1.7719574;1.496129;0.3984993;0.19363543;0.89190257;1.0317085;0.8911377;0.92897415;0.42433727;0.84956855;0.5946896;0.81934875;0.3540914;0.71208435;0.7047793;0.3624224;0.99457145;0.08723211;0.6117421;0.62625676;0.7354737;0.4933754;1.3733752;2.969203;3.0817337;2.9317572;2.511411;3.4142516;4.626597;6.1254373;6.280573;5.505694;4.6610546;4.7682424;5.5952973;4.8530474;2.0652025;1.4351363;1.0696408;0.5540327;0.43857795;0.33574665;0.78362155;0.01372838;0.14607823;0.79508096;0.21793973;0.40367252;0.006433624;1.1113168;1.2879466;1.8339823;3.6019661;2.9347785;2.5253215;5.5425467;6.9373116;8.602207;9.626884;7.3235855;8.430897;10.588521;9.617045;7.973674;5.6127467;3.4172518;2.0654104;0.7573306;0.4420143;0.46473894;0.035577834;0.5084508;0.43808585;0.4872133;0.062506616;0.3391196;0.7939236;0.58017915;1.3670412;1.2193288;3.1773052;1.7389383;1.900316;2.7614832;1.2221905;1.6954625;-2.2217062;1.0148039;1.5091203;2.7066576;3.1477814;2.7142289;1.9350365;3.4838326;2.3487349;1.3281153;0.94175464;0.7340391;0.021074329;0.94272393;0.5462417;0.19455397;0.7160696;0.61728835;0.18101516;-0.122276045;-0.0078099486;0.46701384;3.8253326;2.1952813;1.5711926;-0.51646256;-3.1178834;-4.2625623;-4.2339616;2.709905;6.4269457;4.472707;3.0762892;3.6447353;3.8528032;1.8027548;1.8617322;2.5748346;0.5688981;0.5245416;0.38864487;0.28206012;0.758766;0.69534105;0.31002244;0.17241669;0.13901033;-1.3770746;-1.4096576;-1.5958998;0.42842758;3.564168;1.271348;1.5841641;0.14643222;-1.482909;2.4253206;5.8951855;6.491477;4.439571;4.354324;7.2635627;7.680319;2.5358284;2.3645334;4.5930758;4.4475574;2.5917652;1.3917984;0.45534974;0.12916686;0.79255974;-0.047872007;0.19436088;-1.6295832;-3.5987844;-6.07658;-4.669538;-1.9104781;0.9462482;3.1223676;0.86767125;2.1575663;1.410523;4.667664;1.2138655;1.3190368;0.38178724;-0.0011059478;2.2455766;4.0009556;0.9269511;3.0423827;6.8979583;9.377279;6.2313433;1.5617105;0.8913432;0.9110018;0.30514473;0.38614473;-0.7395653;-3.5471518;-6.115472;-7.1606336;-7.106997;-3.0936193;-3.162333;2.2489655;5.481574;1.5484006;-2.407401;3.4281795;-0.2911565;-5.9814987;-9.398008;-10.447807;-4.5862994;-4.7633414;-2.0629728;2.631877;9.9256525;12.37725;7.482797;1.7067145;1.0757617;0.14261961;0.8185013;0.